GIS
1
0.0
3
BIO=O
BIO=B-NP
BIO=I-NP
7
335 0
406 0 1
911 0 1 2
346 0 2
85 1
216 1 2
130 2
2429
next_lemma=herbicide
lemma=said
token=with
prev_token=it
lemma=will
lemma=for
prev_prev_stem=It
next_stem=out
stem=can
prev_prev_stem=herbicid
stem=under
stem=with
lemma=off
lemma=In
prev_lemma=Lane
next_stem=if
stem=out
token=were
stem=have
token=have
next_lemma=this
stem=like
prev_stem=set
next_stem=thi
next_stem=be
prev_stem=lane
stem=will
prev_token=.
stem=said
prev_stem=were
next_token=this
prev_token=reports
prev_prev_lemma=herbicide
next_lemma=their
prev_stem=would
prev_lemma=just
prev_token=Lane
next_next_token=Douglas
lemma=then
prev_prev_lemma=audience
next_stem=an
token=because
lemma=now
prev_prev_token=been
token=are
lemma=not
prev_lemma=now
prev_token=been
prev_stem=seem
prev_token=now
prev_stem=.
prev_token=just
token=not
lemma=produced
token=now
next_next_lemma=Douglas
pos=:
prev_lemma=part
pos=.
prev_token=rules
prev_token=sales
next_stem=n't
prev_lemma=been
prev_stem=will
next_stem=so
next_stem=herbicid
lemma=over
prev_prev_lemma=been
prev_stem=It
next_token=their
stem=were
prev_lemma=time
token=was
prev_stem=He
prev_stem=techniqu
prev_prev_lemma=so
prev_prev_stem=audienc
stem=wa
prev_stem=sale
stem=had
prev_stem=piec
next_pos=VB
token=been
prev_token=part
prev_prev_token=pension
prev_lemma=piece
prev_token=he
next_token=its
stem=n't
pos=-RRB-
next_lemma=an
next_stem=their
token=of
token=over
next_lemma=be
lemma=also
next_token=if
next_stem=been
stem=of
lemma=ha
stem=on
prev_prev_token=seed
stem=becaus
lemma=if
token=on
lemma=in
lemma=is
token=for
lemma=play
lemma=when
next_next_token=U.S.
next_next_token=SEC
prev_lemma=such
stem=so
prev_token=time
token=so
prev_lemma=share
next_token=be
prev_token=were
next_next_token=second
next_token=an
lemma=of
lemma=on
stem=for
next_stem=some
prev_prev_lemma=male
stem=if
stem=in
stem=is
lemma=such
token=then
stem=ha
lemma=are
lemma=so
prev_prev_token=It
stem=been
token=off
prev_prev_stem=seem
prev_prev_stem=seed
next_stem=off
prev_token=technique
next_lemma=so
prev_prev_stem=insid
prev_pos=PRP
prev_prev_token=insiders
prev_prev_stem=gene
next_next_stem=u.s.
prev_prev_lemma=It
pos=VBP
token=by
token=be
pos=VBD
token=at
stem=off
next_token=off
stem=by
stem=at
lemma=would
prev_token=would
prev_lemma=year
prev_stem=organ
stem=be
prev_token=crops
token=out
stem=against
token=will
prev_stem=part
prev_token=funds
prev_stem=n't
token=against
token=said
next_lemma=if
token=can
lemma=at
lemma=be
prev_token=will
stem=make
lemma=by
token=if
token=is
token=in
next_token=which
stem=into
next_token=so
prev_stem=been
stem=offer
prev_prev_token=herbicide
token=produced
lemma=from
prev_token=executives
prev_token=then
prev_token=they
lemma=may
prev_lemma=then
next_token=out
next_stem=which
next_token=herbicide
stem=includ
prev_lemma=they
prev_lemma=may
prev_stem=share
prev_prev_token=gene
pos=RP
stem=from
lemma=into
token=such
lemma=But
pos=VB
stem=In
prev_token=seeds
prev_stem=may
lemma=under
next_token=file
lemma=wa
prev_prev_token=investment
prev_token=has
next_lemma=n't
prev_lemma=also
token=n't
next_lemma=some
next_token=n't
lemma=file
token=under
prev_prev_lemma=gene
prev_lemma=.
next_lemma=been
next_token=some
prev_token=n't
token=when
token=had
token=has
prev_prev_token=so
prev_pos=.
stem=.
stem=when
stem=?
stem=:
lemma=just
prev_prev_token=audience
prev_prev_stem=so
prev_lemma=n't
token=also
prev_lemma=crop
pos=WRB
stem=now
prev_lemma=ha
prev_lemma=he
next_next_token=reports
prev_prev_lemma=insider
next_next_lemma=second
lemma=.
prev_stem=year
token=In
prev_lemma=technique
stem=are
lemma=been
next_next_stem=sec
next_next_lemma=SEC
prev_prev_stem=commiss
prev_lemma=plan
lemma=?
lemma=:
next_token=been
prev_token=also
prev_token=He
prev_lemma=were
stem=--
prev_token=It
prev_lemma=president
token=--
next_next_token=commercial
stem=over
prev_token=such
lemma=because
stem=would
token=just
token=:
token=?
prev_token=show
next_next_stem=commerci
token=.
token=file
prev_token=crop
next_next_lemma=commercial
lemma=--
next_lemma=out
prev_token=changes
lemma=n't
prev_prev_stem=male
stem=also
lemma=against
pos=-LRB-
prev_token=president
prev_stem=they
token=may
lemma=had
token=into
prev_stem=then
prev_prev_token=male
prev_prev_stem=corpor
prev_prev_stem=free
token=But
stem=seem
token=would
prev_lemma=will
next_next_stem=second
prev_prev_lemma=pension
prev_stem=crop
lemma=were
lemma=have
stem=may
lemma=out
pos=MD
prev_lemma=It
prev_lemma=sale
prev_prev_lemma=seed
prev_stem=plan
prev_stem=also
next_stem=includ
prev_lemma=He
lemma=with
token=from
lemma=can
prev_prev_stem=been
next_lemma=off
prev_stem=he
stem=introduc
prev_stem=ha
next_lemma=which
next_next_stem=dougla
stem=then
prev_lemma=would
next_next_lemma=U.S.
prev_prev_stem=pension
prev_token=may
prev_stem=chang
next_next_stem=if
next_stem=much
prev_token=is
prev_token=in
prev_token=into
prev_stem=be
prev_token=if
next_next_lemma=Lane
prev_stem=by
prev_stem=with
prev_lemma=file
prev_prev_stem=He
prev_lemma=for
next_next_lemma=male
prev_lemma=proposal
next_next_token=proposal
prev_stem=at
prev_pos=WRB
prev_prev_token=company
prev_stem=now
next_next_pos=WRB
prev_prev_token=fund
prev_prev_lemma=may
prev_stem=have
prev_prev_token=time
prev_token=on
prev_token=of
next_stem=hi
next_next_stem=stoltzman
next_stem=he
next_next_stem=genet
prev_lemma=off
next_lemma=agency
next_next_token=male
token=herbicide
next_next_token=Lane
prev_pos=WDT
next_next_lemma=just
prev_prev_lemma=be
prev_token=so
prev_prev_token=This
next_next_token=plant
prev_prev_token=were
next_next_stem=when
prev_token=produced
next_stem=investor
prev_stem=letter
prev_prev_lemma=he
prev_prev_lemma=ha
prev_prev_stem=bond
next_next_stem=chang
prev_prev_stem=n't
prev_prev_lemma=were
prev_prev_stem=crop
prev_prev_token=can
prev_prev_lemma=light
prev_stem=who
stem=last
prev_token=which
next_next_token=hybrid
prev_stem=off
lemma=that
prev_lemma=not
prev_token=not
prev_lemma=--
prev_prev_stem=rule
prev_prev_stem=light
prev_token=was
prev_lemma=which
prev_prev_token=has
prev_prev_lemma=fund
prev_stem=sell
prev_stem=for
prev_prev_lemma=This
next_next_lemma=investor
prev_lemma=who
prev_prev_lemma=option
next_stem=steril
prev_prev_lemma=time
prev_prev_stem=unesco
next_stem=becaus
next_next_stem=stock
prev_prev_token=just
next_stem=unesco
prev_token=are
next_stem=report
prev_stem=group
prev_prev_token=required
prev_prev_token=n't
next_stem=govern
stem=light
prev_pos=MD
next_stem=commerci
prev_token=be
next_next_stem=hybrid
prev_prev_lemma=government
prev_stem=said
prev_token=at
prev_lemma=fund
prev_stem=like
prev_token=by
prev_prev_lemma=part
prev_prev_stem=can
prev_prev_lemma=would
prev_prev_stem=govern
prev_pos=RP
prev_prev_lemma=investor
prev_lemma=are
prev_stem=collin
prev_prev_stem=year
prev_prev_token=part
prev_prev_lemma=investment
next_lemma=UNESCO
prev_prev_token=they
prev_prev_token=then
prev_stem=develop
prev_prev_lemma=UNESCO
prev_stem=out
next_next_token=Stoltzman
prev_token=Collins
prev_stem=against
next_token=he
prev_prev_lemma=just
prev_token=for
prev_prev_lemma=n't
next_next_token=jazz
prev_prev_token=funds
prev_prev_lemma=plant
prev_prev_token=executives
stem=just
prev_prev_stem=investor
prev_token=fund
prev_token=have
next_lemma=because
next_token=U.S.
next_next_stem=work
token=that
prev_stem=make
next_stem=sec
next_next_token=stock
prev_prev_token=plants
prev_lemma=wa
prev_prev_stem=they
prev_token=who
prev_prev_stem=then
next_next_token='s
prev_prev_token=light
prev_prev_token=options
next_lemma=Reich
prev_prev_lemma=Lane
next_stem=file
next_next_lemma=Stoltzman
prev_stem=can
prev_prev_token=He
prev_stem=into
prev_prev_lemma=He
next_token=such
prev_prev_token=UNESCO
prev_lemma=so
next_stem=corpor
prev_stem=introduc
prev_prev_token=investors
stem=about
prev_stem=fund
next_token=UNESCO
prev_prev_token=half
next_next_lemma='s
prev_prev_lemma=can
stem=free
prev_prev_stem=plan
prev_prev_lemma=rule
prev_prev_stem=organ
next_next_lemma=investment
prev_lemma=from
next_next_lemma=right
next_lemma=even
next_next_lemma=pension
prev_prev_stem=also
prev_token=with
prev_stem=--
next_stem=research
next_next_stem=jazz
prev_prev_lemma=year
next_stem=but
prev_lemma=into
prev_token=companies
next_lemma=government
next_next_token=had
prev_prev_lemma=Mr.
next_lemma=he
next_lemma=much
prev_prev_lemma=Ms.
next_token=reports
prev_token=group
prev_prev_token=changes
prev_prev_token=may
prev_token=said
prev_prev_token=will
prev_token=plants
next_next_lemma=hybrid
next_next_token=when
next_token=agency
prev_token=off
prev_prev_lemma=male-sterile
prev_prev_stem=were
prev_prev_token=such
prev_prev_token=plant
lemma=about
next_next_stem='s
prev_prev_token=he
prev_token=--
next_next_token=pension
prev_stem=
prev_prev_token=be
prev_stem=had
prev_prev_lemma=music
prev_prev_token=show
prev_prev_stem=requir
prev_prev_lemma=such
prev_prev_stem=invest
next_next_lemma=stock
lemma=light
next_token=Mr.
next_next_lemma=genetic
prev_lemma=over
prev_prev_lemma=executive
prev_token=can
next_next_stem=organ
next_stem=secur
prev_prev_stem=lane
lemma=herbicide
prev_prev_token=it
prev_prev_stem=time
prev_prev_stem=fund
next_next_stem=right
next_lemma=his
next_stem=reich
prev_token=against
next_lemma=file
prev_token=out
next_token=but
next_next_lemma=half
prev_lemma=against
next_next_stem=male
prev_token=had
stem=herbicid
prev_stem=use
prev_lemma=on
prev_token=proposal
prev_lemma=of
prev_lemma=change
prev_prev_stem=will
prev_prev_lemma=plan
next_next_lemma=proposal
prev_prev_lemma=bond
next_next_token=genetic
prev_token=over
prev_prev_stem=music
next_token=crops
prev_prev_token=now
prev_stem=work
next_next_stem=cotton
next_lemma=share
next_next_token=half
prev_lemma=is
prev_pos=:
prev_lemma=in
prev_prev_pos=PRP
prev_prev_lemma=crop
prev_lemma=letter
next_token=Reich
next_stem=purchas
prev_lemma=if
prev_pos=
prev_prev_lemma=now
prev_prev_stem=sale
next_next_stem=steril
prev_lemma=
next_next_token=funds
next_next_stem=just
prev_prev_stem=half
next_lemma=investor
prev_token=when
stem=not
prev_token=gene
prev_lemma=produced
prev_prev_stem=male-steril
prev_prev_lemma=technique
prev_prev_stem=market
prev_stem=from
next_token=SEC
prev_prev_lemma=also
prev_lemma=had
prev_lemma=gene
prev_prev_token=also
prev_lemma=show
prev_token=
prev_lemma=be
prev_lemma=by
prev_prev_stem=option
prev_pos=-LRB-
prev_lemma=when
stem=such
prev_lemma=play
prev_lemma=at
prev_prev_token=Lane
prev_pos=VB
next_next_token=cotton
prev_stem=over
next_next_lemma=change
prev_lemma=have
next_lemma=U.S.
prev_prev_token=music
next_lemma=SEC
prev_prev_stem=he
next_next_stem=half
prev_prev_stem=ha
prev_prev_pos=MD
next_lemma=such
next_next_stem=pension
prev_prev_stem=mr.
token=about
prev_pos=WP
next_token=his
prev_prev_token=would
prev_prev_stem=ms.
next_lemma=commercial
next_next_stem=investor
prev_pos=VBZ
prev_prev_stem=be
prev_pos=VBP
prev_pos=VBD
next_next_token=if
prev_lemma=with
next_next_stem=sell
lemma=last
prev_lemma=can
next_lemma=Mr.
prev_prev_lemma=they
prev_prev_lemma=then
prev_token=insiders
prev_prev_lemma=required
prev_stem=wa
prev_prev_stem=execut
prev_prev_stem=would
next_next_lemma=if
next_next_stem=had
prev_lemma=Collins
prev_prev_stem=techniqu
prev_prev_token=Mr.
next_next_lemma=had
prev_stem=produc
prev_stem=what
prev_stem=so
next_next_token=just
next_stem=u.s.
next_next_stem=lane
prev_lemma=report
prev_token=investors
prev_prev_token=Ms.
prev_stem=which
prev_prev_stem=presid
prev_stem=when
prev_stem=of
next_stem=share
prev_prev_stem=may
next_stem=agenc
prev_stem=offer
prev_stem=on
prev_lemma=said
next_token=commercial
prev_prev_token=technique
prev_stem=show
prev_prev_token=rules
next_lemma=but
prev_stem=gene
prev_lemma=out
next_stem=such
next_token=investors
prev_prev_token=sales
prev_lemma=group
next_token=even
next_next_lemma=play
next_next_lemma=when
prev_prev_lemma=sale
prev_stem=are
stem=that
prev_prev_lemma=half
token=light
next_token=because
next_lemma=report
next_lemma=purchase
prev_stem=if
prev_prev_token=male-sterile
prev_stem=in
next_next_token=changes
prev_stem=is
prev_prev_stem=part
prev_prev_stem=inform
next_token=much
next_next_lemma=jazz
next_next_lemma=cotton
prev_prev_lemma=will
prev_token=from
next_stem=mr.
next_next_stem=in
next_stem=own
next_next_stem=it
next_next_stem=is
next_stem=propos
next_next_token=executives
next_lemma=would
next_next_token=a
next_next_stem=he
next_next_token=%
next_next_stem=hi
next_next_token=,
next_next_token=.
prev_prev_lemma=have
next_next_lemma=into
next_token=options
next_next_token=:
next_next_token=?
prev_prev_stem=agenc
next_next_stem=ha
prev_stem=``
next_stem=will
next_token=?
next_token=:
prev_prev_token=''
token=even
next_next_token=his
next_stem=said
next_token=corn
next_token=a
prev_stem=as
prev_stem=audienc
prev_prev_lemma=with
stem=even
prev_prev_lemma=``
prev_stem=not
next_next_stem=mr.
next_lemma=for
prev_prev_stem=state
next_next_token=into
prev_prev_token=the
next_stem=can
next_stem=in
next_next_stem=on
next_next_stem=or
prev_token=or
next_stem=piec
stem=manag
next_next_lemma=file
next_next_stem=over
next_lemma=seed
next_next_stem=of
next_next_lemma=audience
next_stem=is
next_stem=ha
prev_lemma=proposed
next_lemma=company
next_lemma=that
next_next_stem=plan
next_lemma=than
next_next_stem=which
prev_stem=sec
prev_prev_token=--
next_token=seed
next_stem=the
next_next_stem=gene
next_next_stem=``
prev_prev_stem=such
prev_stem=investor
next_next_lemma=other
next_next_stem=show
next_stem=even
next_stem=by
prev_prev_stem=u.s.
next_next_lemma=some
prev_token=%
next_lemma=investment
prev_token=,
prev_prev_token=have
prev_prev_pos=''
next_next_lemma=
prev_prev_lemma=Stoltzman
next_next_stem=more
next_pos=WRB
prev_prev_lemma=at
next_next_stem=by
next_stem=with
prev_prev_lemma=an
next_next_stem=be
next_pos=CD
prev_prev_stem=manag
next_pos=CC
next_next_stem=an
next_next_stem=play
prev_prev_lemma=by
next_lemma=then
prev_token=to
next_next_stem=at
next_next_stem=as
prev_prev_token=SEC
prev_prev_token='s
prev_lemma=company
stem=much
next_next_token=file
prev_prev_token=own
next_lemma=produced
prev_prev_lemma=is
prev_prev_lemma=agency
prev_prev_lemma=in
stem=the
prev_prev_stem=jazz
prev_prev_stem=propos
stem=invest
prev_prev_stem=had
next_pos=DT
lemma=purchase
next_stem=at
next_next_stem=offer
next_next_lemma=and
next_stem=``
next_lemma=who
next_token=then
next_next_stem=plant
next_stem=have
prev_prev_stem=stoltzman
next_next_stem=they
next_lemma=are
next_next_stem=then
next_pos=JJ
next_stem=other
prev_prev_stem=director
next_next_lemma=year
next_pos=IN
next_next_lemma=insider
prev_pos=DT
next_next_lemma=music
next_token=and
next_stem=then
next_lemma=over
next_next_stem=invest
prev_prev_lemma=their
prev_stem=%
prev_prev_lemma=it
prev_prev_pos=JJR
prev_stem=,
next_token=that
prev_lemma=plant
next_token=than
prev_prev_pos=WDT
prev_pos=CC
next_stem=a
next_lemma=now
next_lemma=not
next_pos=NN
next_stem=seem
prev_prev_token=had
prev_pos=JJ
next_lemma=male-sterile
next_next_stem=audienc
prev_prev_stem=work
prev_prev_stem=report
prev_prev_token=their
next_pos=MD
prev_pos=IN
next_next_stem=seed
next_stem=develop
prev_prev_stem=,
next_stem=wa
next_token=over
next_next_stem=would
prev_prev_stem=from
prev_prev_token=some
next_next_stem=letter
prev_prev_lemma=his
prev_prev_pos=NNS
prev_lemma='s
next_token=hybrid
prev_prev_lemma=or
prev_prev_stem=a
prev_prev_lemma=on
next_stem=seed
next_lemma=cotton
prev_stem=requir
prev_prev_pos=NNP
prev_token=``
next_next_stem=use
prev_prev_lemma=of
next_next_token=music
next_next_lemma=from
next_pos=RP
prev_prev_lemma=to
next_pos=NNP
prev_pos=NN
next_pos=NNS
next_pos=RB
prev_stem=but
next_token=other
prev_lemma=''
next_lemma=also
prev_token=as
prev_lemma=and
next_pos=TO
prev_token=about
next_next_lemma=rule
prev_prev_pos=NNPS
prev_token=and
next_stem=:
next_stem=to
next_stem=?
prev_prev_stem=
next_next_token=from
next_stem=.
next_stem=,
next_lemma=and
next_lemma=stock
next_lemma=plan
next_token=audience
next_stem=or
next_next_stem=that
prev_pos=RB
next_stem=on
next_next_stem=than
prev_prev_stem=the
next_lemma=when
next_lemma=play
next_pos=JJR
next_token=.
prev_prev_stem=their
next_next_token=``
next_token=,
prev_prev_stem=thi
next_stem=of
next_stem=corn
next_lemma=more
prev_prev_lemma=wa
prev_prev_lemma=had
prev_prev_token=a
prev_prev_lemma=company
next_next_token=required
prev_prev_token=,
next_token=required
next_pos=WP
next_pos=WDT
next_token=who
next_next_token=gene
next_lemma=at
prev_token=Stoltzman
next_next_lemma=report
next_next_token=show
next_token=is
next_lemma=fund
next_lemma=time
next_token=in
next_next_stem=market
next_next_pos=''
prev_prev_stem='s
next_lemma=by
next_next_stem=not
next_token=more
next_stem=who
next_token=also
next_next_stem=now
prev_prev_lemma=some
next_next_token=own
next_lemma=``
next_next_stem=year
next_stem=compani
next_next_token=''
prev_prev_token=this
next_lemma=letter
next_token=would
lemma=more
next_token=male-sterile
prev_prev_lemma=,
prev_prev_stem=own
prev_prev_stem=--
prev_prev_stem=that
next_next_stem=research
next_next_lemma=for
next_token=when
stem=purchas
prev_stem=agenc
prev_lemma=required
prev_prev_lemma=a
next_lemma=last
prev_prev_stem=out
next_next_stem=execut
next_next_lemma=about
next_next_stem=new
prev_prev_lemma=against
prev_prev_stem=produc
next_token=at
prev_prev_pos=,
prev_prev_lemma=into
next_token=not
next_next_stem=rule
next_token=now
prev_prev_pos=:
next_token=was
prev_stem=thi
next_next_lemma=have
next_next_stem=and
next_token=``
next_lemma=change
prev_stem=file
next_next_stem=director
next_stem=execut
next_token=jazz
next_next_token=the
prev_prev_token=that
prev_prev_stem=''
next_next_stem=from
next_next_lemma=with
prev_lemma=government
prev_prev_token=his
prev_prev_stem=but
next_next_lemma=executive
next_next_lemma=''
prev_stem=about
next_token=are
next_next_token=would
prev_lemma=to
next_stem=for
prev_prev_lemma=the
next_next_stem=are
next_next_token=--
prev_prev_lemma=file
next_stem=would
next_stem=hybrid
next_lemma=have
next_next_lemma=option
next_stem=stock
next_pos=''
next_token=by
prev_prev_stem=more
prev_token=but
next_lemma=about
next_lemma=audience
next_pos=NNPS
next_token=plants
prev_stem=insid
prev_prev_stem=dougla
next_lemma=with
next_next_pos=JJR
next_next_stem=requir
prev_prev_stem=play
next_next_pos=WDT
next_next_lemma=York
next_lemma=or
next_next_lemma=part
next_next_token=over
next_lemma=on
token=``
prev_stem=last
next_next_lemma=are
next_next_stem=develop
next_next_lemma=--
next_next_stem=music
next_next_token=New
prev_prev_stem=show
next_next_token=which
prev_prev_stem=for
prev_prev_lemma=SEC
prev_prev_token=Douglas
pos=VBN
next_stem=last
next_next_stem=crop
next_next_pos=PRP$
prev_prev_lemma=out
next_next_pos=NNP
token=as
next_next_lemma=technique
prev_prev_token=with
next_next_pos=NNS
prev_token=company
next_lemma=wa
prev_lemma=agency
stem=``
next_next_lemma=UNESCO
next_stem=plant
prev_prev_stem=right
next_stem=offer
next_next_stem=techniqu
prev_prev_lemma=own
next_lemma=to
next_next_lemma=not
next_next_lemma=now
next_lemma=required
stem=as
prev_prev_token=proposed
prev_pos=''
prev_token=agency
next_lemma=in
next_next_lemma=.
next_next_lemma=,
next_lemma=corn
next_next_lemma=%
next_lemma=is
next_next_token=rules
next_token=for
next_next_token=sales
next_lemma=may
prev_prev_stem=develop
stem=file
next_lemma=will
next_lemma=said
next_stem=fund
next_next_stem=so
next_next_token=has
next_stem=time
next_next_lemma=a
lemma=``
token=much
next_lemma=ha
prev_prev_stem=who
next_token=or
prev_stem='s
next_next_lemma=?
prev_prev_token=``
next_next_token=insiders
next_token=on
prev_prev_lemma=which
next_next_lemma=:
next_token=of
next_next_stem=.
next_next_stem=,
next_next_stem=%
stem=male
prev_prev_token=corn
prev_prev_stem=over
next_next_lemma=fund
next_next_lemma=time
prev_stem=''
next_next_stem=?
next_lemma=of
next_next_stem=:
prev_prev_stem=against
next_next_stem=to
next_next_token=more
prev_prev_token=said
next_next_lemma=who
prev_prev_lemma=but
next_token=to
next_next_stem=a
next_next_token=proposed
prev_prev_lemma=from
next_next_stem=wa
prev_prev_stem=sec
prev_prev_stem=collin
prev_prev_token=much
prev_token='s
prev_lemma=insider
prev_prev_stem=have
prev_lemma=``
next_lemma=hybrid
prev_prev_stem=now
next_next_token=who
next_token=can
next_next_stem=part
next_stem=--
next_pos=:
next_next_pos=JJ
prev_prev_stem=even
next_lemma=rule
prev_lemma=that
next_token=from
next_pos=.
next_next_lemma=they
next_next_pos=IN
next_lemma=insider
next_next_lemma=then
next_next_lemma=the
next_pos=,
next_next_pos=DT
prev_prev_token=an
prev_prev_token=as
prev_prev_token=at
next_next_stem=--
next_stem=''
next_stem=invest
prev_prev_token=jazz
prev_prev_token=by
next_stem=particip
next_next_pos=CD
next_next_pos=CC
prev_lemma=investor
next_lemma=?
next_stem=requir
next_lemma=:
prev_token=SEC
next_token=against
next_lemma=.
next_lemma=,
prev_stem=report
token=the
prev_token=this
next_next_token=they
next_next_stem=own
next_next_lemma=that
next_next_token=then
next_next_lemma=than
next_next_pos=:
prev_prev_stem=and
prev_prev_pos=
next_next_token=for
prev_prev_lemma=for
next_next_pos=,
next_next_pos=.
next_lemma=a
next_stem=chang
pos=RB
prev_prev_token=of
prev_prev_stem=offic
next_stem=letter
prev_prev_pos=POS
prev_prev_token=Collins
prev_prev_stem=secur
prev_prev_token=on
prev_prev_token=or
prev_prev_token=The
next_next_pos=RP
next_next_pos=RB
next_lemma=male
next_next_lemma=New
next_next_token=that
next_next_token=than
next_lemma=executive
next_next_stem=unesco
next_token=male
next_token=executives
prev_prev_stem=are
next_token=companies
prev_prev_token=in
prev_prev_stem=letter
prev_prev_token=is
next_next_token=about
prev_prev_token=U.S.
next_next_lemma=over
stem=report
next_next_stem=''
prev_prev_token=Stoltzman
prev_prev_stem=last
next_next_pos=NN
next_next_stem=one
lemma=male
prev_token=required
prev_prev_lemma=''
next_next_stem=but
prev_token=that
next_next_pos=MD
prev_prev_lemma=proposed
prev_lemma=Douglas
next_next_pos=VBZ
next_stem=male
prev_prev_lemma=who
next_next_lemma=but
next_next_lemma=proposed
next_next_lemma=sale
prev_prev_stem=sell
next_next_pos=VBD
prev_prev_lemma=--
prev_lemma=or
prev_lemma=a
prev_prev_token=was
next_next_pos=VBG
next_next_stem=for
next_next_pos=VBP
next_next_pos=VBN
prev_prev_lemma=more
next_next_lemma=would
next_next_stem=into
prev_prev_lemma=show
next_stem=market
next_next_token=with
prev_prev_lemma='s
next_stem=make
next_next_stem=other
prev_prev_pos=``
next_stem=new
prev_stem=compani
prev_prev_token=
next_next_lemma=one
prev_lemma=%
prev_prev_lemma=
prev_lemma=,
prev_prev_stem=said
token=more
next_next_token=options
prev_lemma=audience
pos=JJR
prev_prev_lemma=jazz
next_next_lemma=company
next_next_lemma=will
prev_prev_token=over
next_next_lemma=said
next_stem=and
prev_prev_lemma=U.S.
stem=more
prev_prev_stem=corn
prev_prev_pos=PRP$
prev_prev_token=to
prev_prev_stem=like
next_token=New
prev_pos=,
prev_stem=stoltzman
next_next_lemma=Mr.
next_next_stem=propos
next_next_lemma=corn
next_stem=work
next_next_lemma=their
next_next_lemma=own
prev_stem=dougla
next_stem=rule
next_pos=PRP
next_next_stem=introduc
next_token=stock
next_next_lemma=light
next_next_stem=who
next_lemma=New
next_next_token=said
prev_prev_token=more
prev_prev_token=against
next_next_stem=some
next_next_stem=insid
next_next_pos=RBR
next_stem=are
next_stem=against
prev_prev_token=are
prev_prev_pos=WP
next_next_token=will
pos=``
prev_prev_stem=with
next_token=funds
prev_prev_stem=much
next_next_token=their
next_next_token=UNESCO
prev_prev_lemma=report
next_next_token=but
next_next_token=produced
next_next_token=one
next_next_token=corn
prev_prev_pos=VB
prev_prev_pos=-LRB-
next_next_token=light
prev_prev_lemma=are
next_next_stem=becaus
prev_lemma=about
next_next_stem=file
prev_prev_stem=wa
next_lemma=against
next_stem=option
next_stem=now
next_stem=not
next_stem=from
lemma=a
prev_prev_token=and
prev_prev_token=agency
next_token=the
prev_token=''
next_next_stem=set
next_next_lemma=seed
next_lemma=other
next_next_token=Mr.
prev_prev_lemma=Douglas
prev_prev_pos=TO
prev_prev_lemma=Collins
next_next_token=audience
next_next_token=plants
prev_prev_stem=to
next_lemma=plant
prev_token=audience
next_token=produced
next_next_stem=option
prev_prev_pos=RB
next_lemma=jazz
prev_prev_lemma=and
prev_prev_pos=RP
next_lemma=the
next_lemma=bond
next_next_token=seeds
prev_prev_token=into
next_stem=also
prev_prev_stem=is
prev_prev_stem=it
next_next_token=time
prev_prev_stem=in
next_next_stem=piec
next_next_token=at
next_next_token=as
next_next_token=an
prev_pos=TO
next_next_token=fund
next_next_token=be
prev_prev_stem=hi
next_next_stem=sale
next_token=''
next_next_stem=report
prev_prev_stem=some
prev_prev_stem=just
next_next_token=by
next_next_token=male-sterile
lemma='s
prev_prev_stem=or
prev_prev_stem=on
next_next_stem=compani
prev_prev_stem=of
next_next_stem=their
next_next_token=he
next_token=--
prev_prev_pos=NN
next_stem=produc
prev_prev_stem=chang
prev_prev_lemma=over
next_next_lemma=``
next_pos=``
prev_prev_token=for
prev_prev_lemma=letter
next_lemma=proposed
next_next_stem=with
next_next_token=because
prev_prev_stem=file
next_lemma=crop
prev_lemma=Stoltzman
lemma=report
next_next_lemma=be
prev_prev_pos=IN
next_next_pos=POS
prev_prev_stem=into
next_next_lemma=an
prev_prev_stem=mani
next_next_lemma=at
prev_prev_stem=by
prev_lemma=SEC
prev_prev_pos=JJ
prev_prev_stem=as
prev_prev_stem=at
prev_pos=VBN
next_next_token=its
prev_prev_stem=an
next_next_lemma=by
prev_pos=VBG
next_next_token=companies
next_token=time
next_token=cotton
next_next_token=it
next_next_token=is
next_next_token=in
next_stem=over
next_stem=about
token=male
next_next_lemma=produced
next_next_stem=particip
prev_prev_stem=``
next_next_stem=intern
prev_prev_lemma=change
next_next_token=
next_stem=director
prev_prev_stem=compani
prev_prev_stem=make
prev_stem=that
next_next_token=or
next_next_token=on
next_next_lemma=because
next_next_stem=corn
next_stem=cotton
next_lemma=can
prev_prev_lemma=The
next_next_stem=about
prev_prev_stem=research
next_stem=than
next_next_token=have
next_stem=that
prev_stem=propos
next_next_lemma=he
next_next_stem=said
prev_stem=to
prev_prev_pos=CC
prev_prev_pos=CD
prev_pos=``
next_next_stem=will
next_next_lemma=ha
next_next_stem=york
next_token=has
stem='s
prev_prev_lemma=that
next_next_lemma=in
next_next_token=technique
prev_prev_token=who
next_next_lemma=is
next_next_token=other
prev_prev_pos=DT
next_next_token=of
prev_token=proposed
next_next_token=and
prev_prev_token=companies
next_next_token=so
next_stem=use
next_next_lemma=it
prev_prev_stem=which
pos=JJ
next_next_token=to
next_token=have
next_next_token=some
next_stem=may
next_next_pos=WP
pos=IN
prev_pos=NNP
prev_pos=NNS
next_next_lemma=plant
prev_prev_pos=VBZ
next_pos=PRP$
next_next_stem=produc
next_next_pos=
prev_prev_token=out
prev_prev_pos=VBD
prev_stem=plant
prev_prev_pos=VBP
prev_prev_pos=VBN
next_stem=audienc
prev_prev_pos=VBG
next_next_token=are
next_stem=crop
pos=NN
next_next_lemma=required
next_next_pos=TO
next_next_pos=PRP
next_next_lemma=on
prev_prev_token=but
next_next_lemma=or
prev_stem=or
next_stem=jazz
next_next_lemma=which
prev_token=Douglas
prev_prev_stem=use
next_next_lemma=of
next_stem=male-steril
next_token=may
next_next_lemma=piece
lemma=even
next_next_stem=time
prev_prev_stem=plant
prev_prev_lemma=this
next_pos=RBS
next_next_pos=VB
next_pos=RBR
next_next_stem=fund
prev_stem=play
next_next_token=now
next_next_stem=male-steril
next_next_pos=NNPS
next_lemma=from
prev_lemma=this
next_next_pos=``
next_next_stem=even
next_lemma=option
next_next_token=not
next_next_lemma=his
next_stem=organ
next_stem=plan
next_next_lemma=letter
next_next_lemma=so
next_next_token=York
next_next_lemma=more
next_stem=play
next_next_token=part
next_next_lemma=male-sterile
prev_prev_token=which
prev_prev_lemma=right
next_stem=bond
next_next_lemma=to
next_lemma=''
next_token=with
next_next_stem=have
next_next_lemma=show
next_token=insiders
next_next_stem=light
next_next_lemma=gene
prev_prev_pos=RBS
prev_prev_pos=RBR
next_next_lemma=plan
prev_prev_lemma=much
next_lemma=--
next_lemma=piece
prev_prev_token=from
lemma=the
next_next_lemma=wa
prev_lemma=but
prev_stem=and
next_token=said
token='s
next_token=about
prev_prev_lemma=said
next_next_stem=
prev_stem=govern
next_token=will
next_stem=insid
pos=DT
next_stem=more
lemma=much
next_stem=when
next_next_stem=the
next_pos=VBD
next_pos=VBG
next_next_lemma=crop
next_stem=intern
next_pos=VBP
prev_prev_lemma=corn
next_pos=VBN
next_token=proposed
next_next_token=was
next_pos=VBZ
prev_prev_lemma=stock
prev_prev_lemma=genetic
prev_prev_token=under
prev_stem=option
next_next_lemma=Collins
prev_prev_stem=In
next_stem=half
token=required
prev_prev_token=commercial
next_lemma=president
prev_stem=market
prev_prev_lemma=even
next_lemma=they
stem=own
prev_lemma=male
prev_prev_stem=about
next_token=under
prev_prev_stem=first
next_stem=it
next_stem=sale
next_pos=-RRB-
prev_stem=even
next_next_lemma=agency
prev_prev_token=hybrid
prev_lemma=UNESCO
prev_stem=cotton
next_next_lemma=new
prev_prev_stem=under
next_lemma=light
prev_stem=stock
prev_stem=execut
prev_prev_stem=what
stem=develop
prev_prev_token=proposal
next_next_lemma=share
token=and
prev_token=male
prev_prev_lemma=if
next_stem=under
prev_lemma=some
prev_stem=commerci
next_stem=as
next_token=they
prev_prev_token=genetic
lemma=but
next_next_token=Collins
next_stem=they
lemma=than
pos=''
prev_pos=CD
prev_prev_stem=:
prev_token=some
prev_prev_token=second
prev_stem=herbicid
next_next_stem=seem
prev_lemma=York
pos=,
next_next_stem=reich
next_next_token=against
prev_stem=invest
prev_prev_lemma=last
prev_stem=york
prev_stem=one
stem=to
next_next_stem=corpor
next_next_token=Reich
next_stem=state
prev_stem=inform
next_stem=had
prev_stem=corn
prev_lemma=This
prev_token=commercial
prev_token=York
next_stem=like
stem=requir
next_token=The
prev_prev_token=New
prev_stem=state
prev_stem=light
next_stem=sell
prev_stem=much
prev_token=plant
prev_stem=half
prev_prev_token=:
next_lemma=The
prev_prev_stem=cotton
next_next_token=can
next_token=it
prev_stem=own
prev_stem=some
next_next_lemma=herbicide
prev_stem=just
prev_lemma=commercial
stem=or
next_stem=part
token=or
next_token=show
prev_prev_token=other
prev_prev_lemma=:
lemma=plan
prev_prev_lemma=New
prev_prev_pos=WRB
next_next_token=herbicide
next_next_token=such
lemma=show
token=to
next_next_token=president
prev_token=This
lemma=and
prev_prev_stem=second
next_token=as
token=than
next_stem=set
prev_stem=manag
prev_stem=the
next_next_stem=presid
lemma=or
prev_token=even
prev_prev_stem=other
next_next_lemma=even
next_token=crop
next_next_lemma=off
next_stem=just
prev_stem=mani
prev_lemma=market
prev_token=herbicide
token=proposed
prev_prev_token=In
stem=set
prev_stem=free
prev_pos=NNPS
lemma=to
next_next_token=crops
prev_stem=male
stem=produc
next_next_lemma=been
prev_stem=time
prev_prev_stem=intern
prev_pos=POS
prev_lemma=investment
prev_stem=right
stem=propos
prev_prev_lemma=In
prev_token=light
next_next_stem=secur
prev_prev_token=about
next_next_stem=such
next_next_stem=against
prev_token=half
prev_prev_lemma=purchase
pos=VBG
stem=work
next_lemma=half
next_lemma=sale
pos=VBZ
prev_prev_stem=when
next_next_stem=purchas
next_stem=introduc
next_next_stem=bond
prev_token=one
token=but
prev_prev_token=even
prev_lemma=music
prev_prev_lemma=commercial
next_lemma=it
next_next_pos=-RRB-
next_stem=inform
next_stem=one
next_stem=presid
prev_prev_token=But
next_next_lemma=government
next_stem=
pos=RBR
prev_prev_stem=purchas
pos=RBS
prev_stem=research
next_next_lemma=purchase
stem=but
prev_token=much
prev_lemma=rule
prev_token=corn
prev_prev_stem=commerci
prev_prev_token=first
next_lemma=under
next_next_lemma=last
prev_lemma=other
prev_token=seed
prev_token=the
next_token=president
prev_prev_lemma=second
prev_prev_stem=not
next_next_stem=been
next_next_token=this
prev_token=UNESCO
next_next_token=seed
prev_prev_lemma=hybrid
prev_token=other
next_next_stem=out
lemma=proposed
next_lemma=into
next_next_stem=govern
prev_prev_token=its
prev_stem=commiss
prev_stem=steril
next_token=into
next_token=sales
next_next_stem=collin
next_next_token=agency
prev_prev_stem=new
prev_prev_lemma=proposal
prev_prev_token=if
prev_stem=such
next_lemma=
next_token=one
prev_stem=corpor
prev_lemma=light
pos=TO
prev_stem=u.s.
prev_stem=other
prev_lemma=right
next_next_token=even
prev_prev_lemma=when
prev_prev_lemma=play
stem=and
stem=commerci
next_next_stem=commiss
next_lemma=just
token=show
next_next_lemma=much
next_next_token=off
stem=plan
next_token=just
stem=show
prev_stem=rule
lemma=required
stem=,
stem=chang
prev_prev_token=not
next_next_stem=off
next_lemma=had
stem=play
prev_lemma=it
next_stem=into
prev_stem=music
next_next_stem=share
next_next_token=much
prev_prev_token=when
prev_token=more
prev_prev_lemma=not
stem=commiss
prev_lemma=U.S.
next_token=
next_next_pos=RBS
prev_lemma=bond
next_next_lemma=out
next_lemma=part
prev_lemma=jazz
prev_stem=presid
prev_prev_token=new
next_next_token=out
lemma=,
prev_lemma=cotton
next_token=part
prev_lemma=more
next_next_lemma=can
prev_prev_lemma=other
next_next_lemma=Reich
next_next_lemma=this
next_next_lemma=such
next_next_stem=much
prev_lemma=herbicide
lemma=''
prev_pos=RBR
prev_token=U.S.
prev_pos=RBS
prev_prev_stem=if
next_next_lemma=against
next_lemma=show
next_next_lemma=president
next_stem=light
token=,
prev_lemma=executive
prev_prev_lemma=first
prev_prev_lemma=new
prev_token=jazz
prev_prev_token=stock
prev_stem=current
lemma=change
next_next_stem=agenc
prev_stem=offic
next_next_stem=includ
stem=''
prev_stem=director
prev_prev_token=file
next_token=light
prev_stem=secur
next_next_stem=like
prev_lemma=even
prev_stem=seed
prev_prev_stem=genet
next_token=had
prev_prev_stem=stock
prev_lemma=the
prev_lemma=option
prev_prev_stem=hybrid
prev_stem=bond
next_lemma=one
stem=current
next_next_token=new
prev_token=cotton
prev_lemma=corn
prev_stem=jazz
prev_lemma=much
stem=use
prev_stem=more
next_next_stem=last
next_pos=
prev_prev_token=cotton
prev_pos=JJR
prev_stem=unesco
stem=sell
next_next_token=been
prev_prev_lemma=cotton
prev_lemma=half
next_stem=show
stem=than
prev_lemma=stock
prev_lemma=seed
next_next_stem=can
prev_token=music
token=''
lemma=commercial
prev_stem=it
stem=steril
next_next_stem=herbicid
token=commercial
next_next_lemma=bond
prev_prev_lemma=under
prev_prev_lemma=But
prev_token=options
prev_prev_lemma=about
prev_stem=particip
next_token=half
next_next_stem=thi
prev_lemma=one
pos=CC
lemma=He
token=its
lemma=It
pos=PRP
prev_prev_lemma=president
prev_token=file
prev_token=:
lemma=this
stem=thi
next_lemma=Stoltzman
pos=POS
lemma=they
token=This
prev_stem=:
token=which
next_token=new
prev_stem=In
lemma=which
lemma=who
token=who
next_lemma=new
stem=their
prev_prev_lemma=piece
lemma=he
stem=who
lemma=it
stem=some
prev_lemma=because
next_lemma=first
next_token=Collins
prev_stem=under
stem=it
token=they
stem=he
token=this
token=an
stem=an
token=Ms.
token=he
lemma=an
token=it
stem=mani
prev_lemma=But
next_lemma=Douglas
pos=WP
lemma=their
stem=which
stem=ms.
next_token=Stoltzman
next_lemma=second
stem=He
prev_prev_token=president
next_token=Douglas
stem=It
prev_lemma=:
stem=what
pos=WDT
stem=A
lemma=some
prev_token=under
prev_prev_stem=piec
prev_stem=includ
token=It
prev_lemma=under
token=He
lemma=A
prev_token=In
token=some
token=A
prev_stem=becaus
lemma=This
next_stem=second
next_stem=first
lemma=Ms.
prev_lemma=In
next_token=second
next_lemma=Collins
next_stem=dougla
next_stem=stoltzman
prev_token=But
next_stem=collin
prev_token=because
stem=they
next_token=first
token=their
token=The
next_stem=york
lemma=corn
stem=right
token=crops
lemma=executive
stem=option
stem=insid
stem=inform
stem=corn
token=stock
prev_stem=reich
stem=execut
stem=letter
lemma=seed
lemma=one
lemma=cotton
token=president
stem=piec
next_next_stem=also
stem=half
stem=sale
token=investors
next_token=seeds
stem=research
lemma=audience
token=time
prev_prev_lemma=Reich
stem=time
lemma=piece
stem=fund
stem=audienc
prev_prev_stem=%
stem=particip
stem=state
lemma=investor
prev_lemma=last
next_stem=%
next_stem=techniqu
token=sales
next_stem=music
next_lemma=pension
token=part
prev_prev_stem=introduc
next_token=%
lemma=option
lemma=plant
prev_prev_token=%
next_stem=pension
next_token=music
next_next_token=crop
lemma=Reich
stem=hybrid
next_lemma=right
lemma=UNESCO
prev_prev_lemma=%
stem=other
next_next_lemma=were
next_pos=POS
next_token=gene
next_next_token=group
next_lemma=market
lemma=bond
next_token=company
lemma=jazz
next_lemma=genetic
lemma=crop
lemma=U.S.
token=insiders
prev_prev_stem=one
token=audience
stem=part
stem=share
stem=hi
pos=NNPS
stem=sec
stem=unesco
token=seed
token=plants
next_next_stem=offic
next_token=technique
next_stem=offic
next_next_lemma=under
token=UNESCO
next_stem=lane
prev_token=Reich
stem=corpor
stem=rule
next_next_token=n't
token=one
lemma=stock
lemma=agency
token=companies
token=hybrid
token=corn
next_token=pension
token=Mr.
next_next_token=also
stem=govern
lemma=insider
stem=agenc
stem=one
lemma=The
token=half
prev_prev_lemma=one
stem=organ
next_stem=commiss
stem=director
next_token=plant
next_token=investment
stem=plant
token=SEC
lemma=president
token=agency
prev_lemma=than
lemma=company
stem=presid
stem=intern
next_stem=year
next_lemma=%
next_stem='s
next_token=own
stem=secur
stem=mr.
prev_stem=purchas
next_lemma=music
lemma=rule
pos=NNP
pos=NNS
next_token=rules
token=options
lemma=investment
token=other
lemma=government
next_lemma=Lane
next_token=Lane
prev_lemma=purchase
next_next_lemma=n't
lemma=hybrid
token=U.S.
token=crop
next_stem=genet
next_next_token=under
prev_token=than
token=New
stem=year
stem=crop
token=jazz
next_token=changes
stem=jazz
prev_prev_token=produced
stem=bond
stem=new
prev_prev_token=Reich
stem=a
lemma=his
next_next_lemma=group
token=male-sterile
next_token=York
next_lemma=York
token=his
lemma=right
stem=u.s.
lemma=part
next_token='s
lemma=letter
lemma=male-sterile
prev_prev_lemma=produced
next_lemma=gene
next_lemma=proposal
stem=compani
token=a
lemma=New
stem=reich
prev_lemma=Reich
lemma=time
next_token=genetic
pos=PRP$
lemma=fund
lemma=share
next_token=fund
next_lemma=technique
prev_stem=than
stem=stock
next_next_stem=n't
next_next_token=were
prev_prev_stem=reich
next_lemma=own
stem=male-steril
stem=seed
next_next_stem=under
next_next_stem=group
stem=cotton
lemma=Mr.
lemma=other
next_lemma=year
token=reports
next_next_lemma=also
prev_prev_token=one
prev_prev_stem=offer
next_lemma='s
next_stem=gene
token=cotton
next_stem=right
next_token=proposal
lemma=SEC
token=executives
stem=market
lemma=sale
next_next_stem=were
token=funds
next_next_stem=state
lemma=half
stem=investor
token=Reich
pos=CD
prev_token=its
prev_stem=an
prev_stem=genet
next_lemma=group
prev_token=The
prev_token=stock
prev_token=a
prev_token=A
stem=york
next_stem=were
token=new
prev_stem=male-steril
token=Stoltzman
token=fund
prev_stem=a
token=second
prev_pos=PRP$
token=investment
lemma=technique
prev_stem=A
prev_prev_stem=A
stem=stoltzman
prev_prev_lemma=because
token=plant
prev_prev_stem=becaus
prev_token=an
token=Douglas
prev_token=new
stem=collin
lemma=market
prev_lemma=pension
prev_stem=their
token=York
token=rules
stem=lane
prev_prev_token=A
prev_token=hybrid
stem=music
token=genetic
prev_lemma=new
prev_prev_stem=than
prev_prev_lemma=A
prev_stem=first
lemma=new
lemma=gene
token=proposal
next_next_stem=inform
prev_lemma=genetic
prev_prev_token=than
prev_token=pension
prev_prev_token=because
prev_lemma=The
next_lemma=were
lemma=Collins
token=music
prev_prev_stem=off
token=technique
prev_token=their
prev_token=investment
stem=first
prev_prev_stem=includ
lemma=group
lemma=year
token=own
token=seeds
lemma=Stoltzman
prev_prev_lemma=off
lemma=proposal
prev_lemma=first
stem=offic
prev_token=own
prev_lemma=their
prev_token=Mr.
stem=techniqu
prev_token=Ms.
lemma=Lane
lemma=pension
lemma=second
prev_lemma=A
token=company
stem=genet
next_stem=group
token=gene
prev_lemma=his
stem=gene
stem=second
stem=%
prev_stem=pension
prev_stem=intern
prev_token=New
next_token=group
prev_lemma=male-sterile
token=first
stem=dougla
lemma=%
prev_lemma=hybrid
lemma=first
stem=group
prev_token=first
prev_lemma=an
lemma=York
prev_stem=ms.
prev_stem=mr.
prev_token=male-sterile
token=%
token=Collins
stem=pension
token=changes
prev_lemma=New
prev_token=his
token=Lane
prev_token=second
prev_stem=hybrid
prev_prev_lemma=than
prev_stem=second
next_token=were
prev_lemma=Mr.
prev_lemma=Ms.
token=pension
prev_lemma=own
lemma=own
lemma=Douglas
token=group
prev_stem=hi
lemma=music
prev_lemma=second
prev_prev_token=off
prev_stem=new
prev_token=genetic
lemma=genetic
0.6065528981297639
0.4745821330044201
0.2528466072230624
0.506487714955201
0.47184958336615784
0.29156298590758933
0.6001907288613789
0.7454546195934
0.6435883306796151
0.438196986015223
0.2987981136548987
0.2528466072230624
0.5873050539123359
0.6733704301121555
0.580297402572244
0.4480805383410623
0.812723410126069
0.39288471025447863
0.4292135458022689
0.316887856154786
0.42373098021430516
0.24025903863923254
0.2317952712654273
0.4312476855143321
0.37454393412873604
0.580297402572244
0.47184958336615784
0.16849836856349532
0.4745821330044201
0.3027795897839395
0.42373098021430516
0.39398209534908385
0.438196986015223
0.27655697853777056
0.37642750343068637
0.43403255211546143
0.580297402572244
0.3543652422458348
0.5929825232281125
0.3351733960917459
0.34162936969555685
0.17944147399420635
0.455429301869146
0.24580020964171603
0.5530270144747635
0.33463042302385787
0.3552078504422203
0.5406598264430036
0.49217216447053913
0.3552078504422203
0.16849836856349532
0.43403255211546143
0.33463042302385787
0.358355614540835
0.455429301869146
0.3543652422458348
0.6919709253702034
0.1585971716123646
0.23724637312844454
0.5146502040476998
0.46915544157489636
0.338330388297353
0.5406598264430036
0.4778332692945948
0.36644868114622414
0.6065528981297639
0.4255305324577833
0.24580020964171603
0.5006268330353604
0.27655697853777056
0.39288471025447863
0.36749503391190375
0.4914500445653554
0.5306294586124773
0.364252448306643
0.2932756036733649
0.3351733960917459
0.5155710005816796
0.46915544157489636
0.36806826931541814
0.49294023162898293
0.47077115092920924
0.3501635093273019
0.1585971716123646
0.2753864600252781
0.49294023162898293
0.5280316480470493
0.21709072605178634
0.31230503608913096
1.3300524965080198
0.34162936969555685
0.27655697853777056
0.29752727013145625
0.4255305324577833
0.37454393412873604
0.4020820530603052
0.4480805383410623
0.33252569650788566
0.29752727013145625
0.33068682389458703
0.27715895252830985
0.16441455278122058
0.17944147399420635
0.2358441182288278
0.27715895252830985
0.292861996342782
0.33454172245451225
0.29156298590758933
0.3847865855852655
0.516574999695976
0.15273003427113616
0.2711044476441122
0.561014398294506
0.4049824799015948
0.37506454622251906
0.4049824799015948
0.1733994874107612
0.37454393412873604
0.3027795897839395
0.16361243551779586
0.34162936969555685
0.29752727013145625
0.27715895252830985
0.3200548018336056
0.45353049396711553
0.3528433938208533
0.2358441182288278
0.292861996342782
0.33454172245451225
0.7182275957047054
0.5929825232281125
0.33068682389458703
0.5530270144747635
0.4049824799015948
0.6001907288613789
0.3501635093273019
0.5873050539123359
0.5536515177195772
0.24143611504077386
0.3318744847053824
0.3546581739996792
0.36644868114622414
0.3321227048163815
0.4905153180627109
0.4007929303244691
0.24677539410387822
0.15273003427113616
0.6001907288613789
0.6257675666395186
0.2681675013436889
0.3806090497474831
0.6598798190206837
0.23984405730812444
0.5873050539123359
0.3318744847053824
0.2681675013436889
0.23984405730812444
0.41846427199791847
0.37642750343068637
1.0768752509925243
0.3729411572842571
0.3806090497474831
0.143776554020141
0.812723410126069
0.16693934257892537
0.47184958336615784
0.1585971716123646
0.23386684408761327
0.49289935287729114
0.16693934257892537
0.4745821330044201
0.4480805383410623
0.6435883306796151
0.23984405730812444
0.3806090497474831
0.4778332692945948
0.5557669009505566
0.2681675013436889
0.2358441182288278
0.33454172245451225
0.292861996342782
0.4357457523887181
0.3656456732064213
0.36644868114622414
0.5406598264430036
0.2840369786597641
0.438196986015223
0.358355614540835
0.25346996843864567
0.351584682810528
0.35726316673971253
0.3827505266572291
0.48857071035196314
0.35726316673971253
0.7454546195934
0.4357457523887181
0.6065528981297639
0.9490823271531532
0.3827505266572291
0.33644417990704495
0.1733994874107612
0.2323380457997669
0.8001782587676634
0.25346996843864567
0.3656456732064213
0.7182275957047054
0.9098767091456321
0.6314317690985363
0.6733704301121555
0.29261512876926177
0.33644417990704495
0.22214538035557468
0.3052266598430328
0.4914500445653554
0.3906910320641754
0.341152468174964
0.338330388297353
0.2951169050716944
0.31230503608913096
0.45353049396711553
0.338330388297353
0.38209929710830465
0.22214538035557468
0.24677539410387822
0.16849836856349532
0.33252569650788566
0.45353049396711553
0.49289935287729114
0.516574999695976
0.36806826931541814
0.33068682389458703
0.2932756036733649
0.16849836856349532
0.2388918522389027
0.516574999695976
0.19877045869088805
0.5525731240993398
0.5575029721005046
0.34715072630078214
0.2932756036733649
0.49289935287729114
0.4020820530603052
0.2101069581541742
0.7102752758621809
0.5247126102484301
0.341152468174964
0.5280316480470493
0.3253229087624225
0.3321227048163815
0.16361243551779586
0.2388918522389027
0.9588527595539005
0.6733704301121555
0.364252448306643
0.5530270144747635
0.3501635093273019
0.2711044476441122
0.2711044476441122
0.5191657447656015
0.4876632900688017
0.19877045869088805
0.5525731240993398
0.33252569650788566
0.2951169050716944
0.5306294586124773
0.3027795897839395
0.549899607712638
0.5006268330353604
0.44422025222206646
0.549899607712638
0.16257982891562878
0.4255305324577833
0.561014398294506
0.17944147399420635
0.41846427199791847
0.5575029721005046
0.5525731240993398
0.19877045869088805
0.26301452399234315
0.16257982891562878
0.2388918522389027
0.3129840426936895
0.27790682419467116
0.16257982891562878
0.549899607712638
0.7454546195934
0.2468889316997455
0.31230503608913096
0.3528433938208533
0.46095802027244365
0.16693934257892537
2.14748465822449
0.44422025222206646
0.35806451075256496
0.48857071035196314
0.36806826931541814
0.3656456732064213
0.3387628895691685
0.3528433938208533
0.2839999410574095
0.5050260685201637
0.9098767091456321
0.4558776892922156
0.41846427199791847
0.4778332692945948
0.16361243551779586
0.2753864600252781
0.2101069581541742
0.39288471025447863
0.316887856154786
0.48857071035196314
0.812723410126069
0.5109732862575921
0.5006268330353604
0.46915544157489636
0.24143611504077386
0.4876632900688017
0.3688197075447671
0.39168847382954675
0.5306294586124773
0.2528466072230624
0.25346996843864567
0.6435883306796151
0.24580020964171603
0.3318744847053824
0.5280316480470493
0.2606467128929335
0.341152468174964
0.4357457523887181
0.3543652422458348
0.8882750479143978
0.37642750343068637
0.15273003427113616
0.2753864600252781
0.33644417990704495
0.23553974010298637
-0.46453120275840315
0.37896667227598635
0.18223532963526537
0.24417693877908395
0.5827510516652206
0.3729549735764307
-0.2588155837558733
-0.5601970018297214
0.3112303402048682
0.07454302366724946
0.2563428824280465
0.5465877009526676
-0.9628302012000294
0.1781331775363313
0.02044665916127122
0.3539431764549454
0.3439551095482307
-0.3413592658625778
0.2859782937135863
-0.5855465248504937
0.2991548638770836
-1.1305146423715415
0.6725009256513035
0.1605842444272989
0.537163834832868
-0.17895897010156567
0.2748261386436516
0.17601383451800914
-0.1970832696122755
0.11674578392936182
1.5937476178896282
0.11687630199067228
-0.03237980657986871
0.18434111342193168
0.20011718546292484
0.21916119120689764
0.6232061634888793
0.3076024127955695
-0.42443093869971826
0.17610220011938676
0.5700910446704693
0.3302472991615037
-0.06824631370638289
0.2390211161959784
0.0693480061174068
0.37700283772428644
-0.19598282135206913
0.2771261446353972
4.8575397064921466E-4
0.05109882208184583
0.5617932637179023
-0.41316391551422293
0.2552873415398012
-0.7289262595447563
0.2848383165184539
0.20884988908553376
0.2387649017124441
0.2155727292440352
0.32624069954402807
0.21679724184769278
-0.0160863713056569
0.3034761108063126
-0.6281282518433574
-0.17651506126418975
0.2112040116264473
-0.3986611679670341
0.2602358229453273
0.17601383451800914
-0.1970832696122755
1.9530008875755103
0.14134119008357415
0.3539431764549454
0.3439551095482307
0.38176142554343434
-1.706740479478949
0.30370353663239125
-0.31726682313337
0.3737454867497142
0.8288980960349662
0.20797068729220103
0.3843238178614413
0.1805475491809497
-0.08915614620445765
0.11531605030621336
-0.1165343273555224
0.21412456906182087
0.5927677757435537
0.10670228136755727
0.29146149087539563
0.18212807084418448
-0.17632619879973818
0.20693562221924305
0.32099107510122576
0.2720387835438866
0.0016999559826358817
0.2951782171290991
-0.03953571311885646
-0.009564708055949361
0.5469437212080972
-0.2692977524454114
0.7955712651003395
0.16687747522100202
0.06406464400344787
0.3402032914100595
-0.11952156547074635
0.21412456906182087
0.5927677757435537
0.10915789497707129
0.2607470761785993
-9.277813029131394E-4
0.5521891809055791
0.035287675901384534
0.34102452322313886
0.461980259544592
-0.03229258531334884
0.5625390611955742
0.8813160871371188
0.3321302710505852
0.24914031352976107
0.18643429177010035
-0.13912285925217555
-0.17651506126418975
0.2112040116264473
-0.24685358481398817
0.9098943203670106
0.2592543046660877
0.19849925880654376
0.2592543046660877
0.19849925880654376
0.40809662475524655
0.09008224631570001
0.33505302203353665
0.025342031828184588
0.035287675901384534
0.34102452322313886
0.27249539784490556
0.1418169227450667
0.3321302710505852
0.24914031352976107
-0.009564708055949361
0.5469437212080972
0.1984402882661948
0.06640046440016631
0.2359842885285118
0.6330838705917295
-0.07484150686529127
0.26420478202611036
0.1805475491809497
-0.08915614620445765
0.30650529590156483
0.3689385918009392
0.461980259544592
-0.03229258531334884
0.13607081927662504
0.22178532684905056
0.4613249583728873
0.49885374608032174
0.38434589521366597
0.15290968115053788
0.19676603592528294
-0.036455813666778324
0.4711808723923723
0.010865641808441299
0.18986251474966628
-0.00834630527540888
-0.11995509228750792
0.374724703128159
0.3925237916395877
-0.24214676345624436
0.45876190628920144
0.16448578195954594
0.24265599495943674
-0.3814245284288195
0.012667439371301494
1.2248857253122671
0.28631168417081926
-0.44395472493404764
0.3402032914100595
-0.11952156547074635
0.3676494948219636
0.2392545507683446
0.667821409529202
0.9002024228290453
0.4222934279252513
-2.174959205867052
0.2475726618395968
0.05471678239215236
0.5465877009526676
-0.9628302012000294
0.18643429177010035
-0.13912285925217555
-0.09438964760052454
0.6805235535959766
0.20483413227864647
0.19860977896730528
0.18434111342193168
0.20011718546292484
0.24175526659988902
-0.5548518744847301
-0.12882128262691142
0.230160729736576
-0.3413592658625778
0.2859782937135863
0.11012887803966903
0.07053482196193685
-9.277813029131394E-4
0.5521891809055791
0.37641035746831636
0.24289576092750506
-0.09438964760052454
0.6805235535959766
0.42307834959245955
0.004924444818808745
0.10664401288136739
0.6953529841484561
0.45876190628920144
0.16448578195954594
0.4067380074941097
0.3482507458235893
0.2150955846951722
0.36075000016749115
0.11012887803966903
0.07053482196193685
0.16457488698608716
0.5669117986008998
0.3925237916395877
-0.24214676345624436
-0.013444755472147196
0.49931706363635603
0.24575419232970674
-0.18778009515831628
0.4167325071527361
-0.24857347208340624
0.19676603592528294
-0.036455813666778324
0.2658703327187775
0.24618389235173754
0.2155727292440352
0.32624069954402807
0.4067380074941097
0.3482507458235893
-0.057002414766820816
0.15128588011392782
0.21679724184769278
-0.0160863713056569
-0.11995509228750792
0.374724703128159
-0.17895897010156567
0.2748261386436516
0.3402032914100595
-0.11952156547074635
0.40067943213496576
0.2810551981398293
0.10525010487225286
0.06092570180709835
0.1927315439375748
0.10737784346923557
0.30634910692212275
-0.006685810115027363
-0.27380465817271776
2.8953933510895373
0.196069939900684
0.7142733880420606
0.2461826473837523
-0.2658845205373646
0.13771650139852407
0.2914278546099463
0.4711808723923723
0.010865641808441299
0.42677615420132087
0.03916560725639603
0.4018074906489391
-0.018397700926504664
-0.24685358481398817
0.9098943203670106
0.9663516903046827
-0.22760569557946564
0.8541873107587188
0.02159585067171785
-0.405471418382948
0.5855822891724967
0.1752763486462999
0.2537045194262568
0.27249539784490556
0.1418169227450667
-0.0807363979760529
0.320761637826235
0.461980259544592
-0.03229258531334884
0.23504765699021307
-0.2647560951501336
0.02499702363442356
0.1290296833371388
0.035287675901384534
0.34102452322313886
0.13607081927662504
0.22178532684905056
-0.23174568759332612
0.2998381310296816
0.25083537106829124
0.30790127475435664
0.2024484687154949
0.2954903958800773
0.2155727292440352
0.32624069954402807
0.3942430198411178
1.1825515633767547
0.1605842444272989
0.537163834832868
0.07454302366724946
0.2563428824280465
0.1605842444272989
0.537163834832868
0.21300434857410797
0.008467801701581186
0.19676603592528294
-0.036455813666778324
0.20797068729220103
0.3843238178614413
0.3185656823764949
0.4010132080888406
-0.1329444993499624
0.3064195302228504
0.05897721753946448
0.7819878083449372
-0.3673688418331466
1.3159508863400458
0.24230394545790554
-0.5865836174093588
0.3925237916395877
-0.24214676345624436
0.43429446320699666
0.20601251930295428
0.02499702363442356
0.1290296833371388
-9.277813029131394E-4
0.5521891809055791
-0.6111843491905471
1.1648455898579386
0.2000050488555418
-0.12781805655695105
0.33505302203353665
0.025342031828184588
0.4776708333488547
0.24637697325120225
0.2291345361379019
-0.044339338227108734
-0.06472464920048264
0.21281714167463336
-0.9478706150336536
0.8113137232953225
0.4297796964711112
0.05951752382747215
-0.6073735736086224
1.0661021998110076
0.29026994404261447
-0.3478440650250634
-0.5855465248504937
0.2991548638770836
0.40809662475524655
0.09008224631570001
0.9705705865043674
0.6128891804501011
0.40067943213496576
0.2810551981398293
0.23822198942856632
0.411656860325779
0.3889534423143972
-0.24393742815339825
0.07454302366724946
0.2563428824280465
0.02069318233803185
0.7223492068523949
0.3676494948219636
0.2392545507683446
0.5461300257270097
0.5002787295850095
0.22339627339627438
0.16031289105596572
0.21679724184769278
-0.0160863713056569
0.24417693877908395
0.5827510516652206
0.3559256238266089
0.05300195253209882
0.1925280557955472
0.03150349825161425
0.012667439371301494
1.2248857253122671
0.3437270435560188
-0.6122301971953571
0.37700283772428644
-0.19598282135206913
0.20483413227864647
0.19860977896730528
0.39882642238231925
0.5553416949481926
0.18970164463887285
-0.30050986977519817
0.18643429177010035
-0.13912285925217555
0.10670228136755727
0.29146149087539563
-0.3986611679670341
0.2602358229453273
-0.17651506126418975
0.2112040116264473
-0.08694902480350294
0.5833364135816922
0.21412456906182087
0.5927677757435537
0.1893017520602514
0.6369375487525192
0.21853839140251508
-0.5137613803733538
-0.3673688418331466
1.3159508863400458
0.02499702363442356
0.1290296833371388
0.2951782171290991
-0.03953571311885646
0.40809662475524655
0.09008224631570001
-0.6073735736086224
1.0661021998110076
0.1114812073340311
0.4027135121408411
0.3737454867497142
0.8288980960349662
0.2302628483798928
0.3568668991410049
-0.19362188244509748
0.6708412643233616
-0.23717080211201833
0.2973712288053222
0.23464531837487354
-0.22653926482817155
0.1893017520602514
0.6369375487525192
-0.5731661101456705
1.269443477136837
0.18986251474966628
-0.00834630527540888
0.667821409529202
0.9002024228290453
0.2924175622599558
-0.09575293517188325
0.10058791389436252
0.1083203092384204
0.43468317726331335
-0.22269448872547873
0.3324485963841403
-0.10765739184122064
0.3942430198411178
1.1825515633767547
0.5764783416603612
-0.23946247318645245
0.32198136355191026
0.6604883589699007
0.25083537106829124
0.30790127475435664
1.9530008875755103
0.14134119008357415
0.5007624755121971
0.17984578149941652
0.3204992153129598
0.016554832010541948
0.17860829462332706
0.130695411802022
-0.9478706150336536
0.8113137232953225
0.20884988908553376
0.2387649017124441
-0.23174568759332612
0.2998381310296816
-0.057002414766820816
0.15128588011392782
0.23266232855617455
-0.42131357103180167
0.2658703327187775
0.24618389235173754
0.3889534423143972
-0.24393742815339825
0.5832834632083135
0.2801525011793839
-0.057002414766820816
0.15128588011392782
0.17601383451800914
-0.1970832696122755
0.2302628483798928
0.3568668991410049
1.9530008875755103
0.14134119008357415
0.02740073248629033
0.5354441825900252
-0.41316391551422293
0.2552873415398012
0.009897353261418811
1.8972124972880617
-0.7289262595447563
0.2848383165184539
0.23715334387572
-0.33756989006125243
0.39882642238231925
0.5553416949481926
0.2000050488555418
-0.12781805655695105
0.12476627057497873
-0.10633251444420044
-0.2692977524454114
0.7955712651003395
0.10058791389436252
0.1083203092384204
0.43468317726331335
-0.22269448872547873
-0.052493226184408395
0.7651854046106198
0.003019723101610558
0.2990066246659178
0.15400871333933183
0.04114044444585102
0.3423191302088706
0.1312391229678344
0.27835265331076964
-0.31131448328145217
-0.4045785016052078
0.5804018747346587
0.5832834632083135
0.2801525011793839
0.3729549735764307
-0.2588155837558733
-0.21794087706119142
0.4498240262610522
-0.5601970018297214
0.3112303402048682
0.3733946255836101
0.029561552740147864
0.10915789497707129
0.2607470761785993
0.2720387835438866
0.0016999559826358817
-0.23174568759332612
0.2998381310296816
0.4212346910594618
0.3925704356898415
0.1781331775363313
0.02044665916127122
0.1114812073340311
0.4027135121408411
0.15400871333933183
0.04114044444585102
0.4553753243432014
0.3311832858810337
0.15776879663303092
-0.10753311819116855
0.1114812073340311
0.4027135121408411
0.2687892230323695
-0.2348469837916204
0.30370353663239125
-0.31726682313337
0.43429446320699666
0.20601251930295428
0.20693562221924305
0.32099107510122576
0.26967117684447184
0.5000036668600526
0.02859271244143423
1.3645091926548156
0.15364943980065054
0.38147815636170646
0.18212807084418448
-0.17632619879973818
-0.08694902480350294
0.5833364135816922
0.4374996805929291
-0.37853853242036734
-0.044282799532946795
1.099811640479184
-0.06472464920048264
0.21281714167463336
0.8541873107587188
0.02159585067171785
0.28756403637751127
-0.22020455006369907
0.2302628483798928
0.3568668991410049
0.16776809182416183
0.3269448376035262
0.28756403637751127
-0.22020455006369907
0.23519850067202522
-0.2575441260600558
0.1114812073340311
0.4027135121408411
0.5465877009526676
-0.9628302012000294
-0.3413592658625778
0.2859782937135863
0.13607081927662504
0.22178532684905056
1.4608111762077491
0.06652449934326402
0.26967117684447184
0.5000036668600526
0.5613853081496223
-0.17051486471444782
-0.08759553118764207
0.7630388280079358
0.18434111342193168
0.20011718546292484
0.25083537106829124
0.30790127475435664
0.1562539684752595
0.6064636433907725
0.27835265331076964
-0.31131448328145217
0.43468317726331335
-0.22269448872547873
0.2554574488764915
-0.07247976273908961
0.13771650139852407
0.2914278546099463
0.42677615420132087
0.03916560725639603
-0.19362188244509748
0.6708412643233616
0.8541873107587188
0.02159585067171785
0.2951782171290991
-0.03953571311885646
0.5832834632083135
0.2801525011793839
-0.009564708055949361
0.5469437212080972
0.3036584831141326
0.41985814122497855
0.21300434857410797
0.008467801701581186
-0.6073735736086224
1.0661021998110076
0.22339627339627438
0.16031289105596572
-0.3673688418331466
1.3159508863400458
0.6227334448285641
-0.06211021746838762
0.20884988908553376
0.2387649017124441
0.37641035746831636
0.24289576092750506
0.3559256238266089
0.05300195253209882
0.2475726618395968
0.05471678239215236
0.30650529590156483
0.3689385918009392
0.2645398559311743
0.6587013261234095
0.3737454867497142
0.8288980960349662
0.3801920651811838
0.01977924961327747
-0.015729500814113305
0.5427262215247399
0.37896667227598635
0.18223532963526537
-0.5855465248504937
0.2991548638770836
0.0740975966867475
0.802693114854979
-0.339880116764146
1.0439749765450705
0.3942430198411178
1.1825515633767547
0.2924175622599558
-0.09575293517188325
-0.013444755472147196
0.49931706363635603
0.24575419232970674
-0.18778009515831628
0.1960397756588838
0.36392674843668976
0.28631168417081926
-0.44395472493404764
0.25643998690031333
0.17301090433881153
0.29229034064634485
-0.031021021224341354
0.37641035746831636
0.24289576092750506
0.37896667227598635
0.18223532963526537
0.5461300257270097
0.5002787295850095
0.4067380074941097
0.3482507458235893
0.4374996805929291
-0.37853853242036734
0.22339627339627438
0.16031289105596572
0.5461300257270097
0.5002787295850095
-0.0406539059493853
0.7850538327048276
2.098589030596625
-0.03484528948598375
0.20797068729220103
0.3843238178614413
0.30370353663239125
-0.31726682313337
0.42677615420132087
0.03916560725639603
0.3539431764549454
0.3439551095482307
0.19184168469715748
0.4201345767724805
0.37937890523542983
0.3493573163687957
0.3559256238266089
0.05300195253209882
0.3321302710505852
0.24914031352976107
-0.271716903762694
0.3860530926206508
0.26967117684447184
0.5000036668600526
-0.7289262595447563
0.2848383165184539
-0.4045785016052078
0.5804018747346587
0.37700283772428644
-0.19598282135206913
-0.3986611679670341
0.2602358229453273
-0.009012016119539418
0.3710946312414901
-0.41316391551422293
0.2552873415398012
0.20483413227864647
0.19860977896730528
0.2475726618395968
0.05471678239215236
0.3634470007263219
-0.027060325258361592
0.23519850067202522
-0.2575441260600558
0.3944954764683314
0.18015801716946592
0.3889534423143972
-0.24393742815339825
0.16776809182416183
0.3269448376035262
0.2658703327187775
0.24618389235173754
0.21300434857410797
0.008467801701581186
-0.6312756823428576
0.6897938731198474
0.4553753243432014
0.3311832858810337
0.012667439371301494
1.2248857253122671
0.4297796964711112
0.05951752382747215
0.059507543380389674
0.3139361957747132
0.10670228136755727
0.29146149087539563
0.4553753243432014
0.3311832858810337
0.45876190628920144
0.16448578195954594
-0.26718672999687
0.8864330856400718
0.43429446320699666
0.20601251930295428
0.667821409529202
0.9002024228290453
0.4711808723923723
0.010865641808441299
0.1891039348942781
-0.16044030554362815
0.4212346910594618
0.3925704356898415
0.1781331775363313
0.02044665916127122
-0.08694902480350294
0.5833364135816922
-0.5601970018297214
0.3112303402048682
0.19779238739402086
-0.006606262424347324
0.3729549735764307
-0.2588155837558733
0.11012887803966903
0.07053482196193685
0.6000552666369586
0.38899641413528646
0.24417693877908395
0.5827510516652206
0.40067943213496576
0.2810551981398293
0.27835265331076964
-0.31131448328145217
0.39882642238231925
0.5553416949481926
-0.06472464920048264
0.21281714167463336
0.2924175622599558
-0.09575293517188325
0.004035148575111136
0.08548467533680663
-0.12036454824138176
-0.33593850542544756
-0.1684677681028291
0.40382997793790004
0.08669656817906199
-0.28900823398815845
0.04872444379236235
-0.2192818831807314
-0.02148340361003452
0.1212406474736718
-0.36280226910932906
0.10735111100140168
-0.013177100952845563
-0.2805206454958004
0.39838902225745837
-0.15639104740916523
-0.0615596117533972
0.10030303973411668
-0.005103528077348668
0.0941195375784778
-0.0906497757812124
-0.11507997059830348
0.18885195877741873
-0.1671511235167629
-0.4887410469184225
0.03921208771582616
-0.5911454511904164
0.2677051619349811
0.13252313812106203
-0.08750620963324834
-0.14951629105181408
-0.30042356503654594
0.0544089746333766
0.12169468389557805
-0.07361076547206545
0.014918862270208798
0.0548292249258536
-0.13878108847793677
-0.1406734763285244
0.27100741089951685
-0.6609970863021791
0.012252691434878003
0.38289112549860427
-0.640144862990963
-0.5153137452703966
0.35907799321514383
0.1762949367027773
0.03049348409222881
-0.6093001860861931
0.3586548332599759
-0.25116667722062735
-0.3962319840411373
-0.07156145345487896
0.025103911820108387
0.14064377077390777
-0.26986358740094923
-0.21545029418820708
0.2723617708082242
-0.3643670637085135
0.23474449016084628
-0.17210422186498284
-0.31270285199616044
0.11790151441050563
0.07654542405073166
-0.07497258508382393
0.23109790027463514
-0.007673236018221944
0.2881288387792376
-0.07041019957609171
-0.13197413966409155
0.03720881504674632
0.03640403718667758
-0.15207433688994296
-0.5333900296028338
0.6098763315420527
0.0933178257429726
0.13252313812106203
-0.08750620963324834
-0.14951629105181408
-0.11551292463833962
-0.16394566140917893
0.18900791023100547
-0.3062287764376155
0.11758609156169925
0.011956297952140128
0.09603959835846677
0.5084129600079152
-0.9071425602566162
0.28144827664642386
-0.23617514519180732
0.123790726687532
0.2648054037561851
-0.2949470819995005
-0.3106912318938148
-0.17423033716769099
0.0533242245534377
0.07490382217221529
-0.5988945476478039
0.4748311424262128
0.12456594343856246
-0.1197784752989093
-0.27062749963825306
0.10603760532055113
-0.010058576266071659
0.05270411055447884
0.07957660723281512
8.432954065549716E-4
-0.19086823722721188
0.0972505148323175
-0.00222017535690571
-0.007660406718636286
0.0152401794897631
-0.5307880002036869
0.04953811533754687
0.5622092139772931
-0.6609970863021791
0.012252691434878003
0.38289112549860427
-0.036101619172759385
-0.4132000013058308
0.1281774608806314
-0.06808895426182843
0.17243596405445308
-0.4573961714255438
0.009596377801143896
-0.19551048263609835
0.06452191005713803
0.24669437554742832
-0.49834242562336384
-0.37387211788145486
0.047137640615632435
-0.07672106920418315
-0.0022632495276446525
0.0696578885428941
0.07153583261972976
-0.11220657875736748
0.11617987285318464
-0.0319506845342126
-0.08757516014742638
-0.9485857184421492
0.21749440186208172
0.4958566152205318
0.06997414229942468
-0.3694241106418552
0.20971252319060812
-0.05503208278911051
-0.1733583272524822
0.32089895484196695
0.18485777269454562
-0.03441646598553419
-0.026156682583567042
0.0030774635569618845
-0.0770661838738579
0.10326646910603589
0.27454368346872365
-0.24783644458340262
-0.4560507232445892
-0.03410633967536902
-0.07747804061001394
0.06760658110149664
-0.48146215923781077
-0.1453217633324644
0.16498748222791318
-1.1047007577267414
0.06117268449083606
0.2738329789367516
-0.5594249101014301
-0.03982541373514101
0.39094469831104217
0.10958056868156188
0.07600755852709187
-0.0989966559883333
0.27057640707535213
-0.23617822226078225
-0.48114692187891567
0.24166763029323837
-0.021365863392291844
-0.1192204208625167
0.16041563403625958
-0.21980963150530333
-0.034165176365067405
0.011192537813261898
0.4532748241628929
-0.37959731657823054
-0.5557837738934536
0.271184534414533
0.20487379515210422
0.557483600259154
-0.20462639375261152
-0.1903073104231857
0.08752217056361426
-0.3680098693037283
-0.21013025516037512
-0.22346820794380676
0.08211137459936893
-0.022654279624355768
0.03324559530114112
0.03572251197058924
-0.07095305036113386
0.05934961010749664
0.4954420894957037
-1.2413260347491726
0.3395091702448503
-0.2339787433235056
-0.9123712021310987
-0.09362862394337543
0.5242946765367212
-0.49743249110631343
-0.5642189146019994
0.5639834915656631
-0.8445353446744044
0.27925022106227554
0.024166499972967544
-0.9665075183714148
0.03907774287984136
0.21498113521648973
-0.2117535719341747
-0.012595049684814577
-0.13347597507258174
0.22392303895460416
0.31294608681393693
-0.46196736010304745
-0.15747879599615927
-0.5454670478277994
0.334612674285002
1.3683863056584238
-0.623535087626105
0.21054169549701848
-0.02037459119586855
0.04168136777520303
-0.0061992978984452204
-0.07390480840504646
-0.13878108847793677
-0.1406734763285244
0.27100741089951685
0.03720881504674632
0.03640403718667758
-0.15207433688994296
0.10771009687000109
-0.4610367991922534
-0.047786258276000346
-0.15425008087136627
0.13890408003531968
-0.016706233617092663
-0.21078272290784683
-0.8508143022600685
0.4402954854262598
0.09204399733121485
0.32256911457231874
-0.7464089701870762
-0.1837788033999044
0.20500390995160647
0.07255834965717782
0.1840051528508234
-0.3904309883983089
-0.08036317124098154
0.21845725336233343
-1.1595706242971828
-0.1613529122573438
-0.3908139266685914
0.1005307859073463
0.299843562616189
0.03383011493813598
0.3204608899029672
-0.536464845884249
-0.11837509944062052
0.33314535547186797
-0.29776542651928894
-0.3635658350041274
-0.024168868781281924
0.8943078150349439
0.07028064600326014
0.020581216208149355
-0.09080698091122844
-0.1438396347332372
0.1006029616179793
0.03556774577204243
-0.1958023992260372
0.18587050464453156
-0.1353051968019575
-0.4643345010903678
0.2805040297869058
0.17573764488431384
0.14172064324729422
-0.16032617122072282
-0.3609562642784002
0.09372772274751623
-0.043332452950125104
-1.2244678740984734
0.04114935686187585
0.014564548005739635
-0.06578079701196364
0.01946782342698749
0.18000035361441402
-1.1553592094056921
0.11162897542194997
-0.4372393013009063
0.13794921570870947
-0.008235923410379735
-0.68375880423493
0.16044057566787615
-0.06930899571382214
0.39125694013233436
-0.34913582966453904
-0.9099746846876531
0.6650507508439674
-0.058010791676675506
-0.06222117311226688
-0.2801721776943566
0.5834309686380209
-0.0762901202589418
0.33887986863988384
-0.14640643894840566
-0.10397393142127566
0.1882041243212334
-0.020827847828037656
0.1639280217504887
-0.282120580752062
-0.250084940182102
-0.07156145345487896
0.025103911820108387
0.14064377077390777
-0.20111698036404035
-0.598846345238823
0.1956796154103919
-0.7194722535582629
0.10454800316367306
-0.9036309710750977
-0.2222167399963293
0.12175505163716348
0.024974909503593448
0.06670754480880123
-1.4026161675265802
0.3580434753682732
-0.25517996732356996
1.236018267483732
-0.023493697383492274
0.15199430520703866
0.1239888948090219
-0.4964654207381529
0.1473982260623095
-1.3174514131984867
-0.9949030877931372
0.17526988968804383
-0.35993714536548727
0.12399468342739324
-0.20483598252605165
0.1048846181367372
0.06564080702965264
0.1686577423802046
-0.3272722588768541
0.022733106093436557
-0.018190724146177777
-4.458951797944925E-4
0.031655620921863865
0.05622982750480928
0.010534019132718146
-0.11705296506464469
0.0941702736058412
-0.3482296301406033
0.19704573782861157
0.14172064324729422
-0.16032617122072282
-0.3609562642784002
-0.01731581318171207
0.1845172661956761
-0.20721029666764748
0.07888982909584046
-0.1389442006097466
-0.04749001568265668
-0.15425008087136627
0.13890408003531968
-0.016706233617092663
0.14384040054949407
-0.010070472804872641
-0.18195681571613073
-0.17782322105961687
0.0047355333752281065
0.07453190419486802
0.07231075638301301
-0.1292366271614905
0.03415408886595498
0.03154298444901293
0.01705659580887724
-0.08350503519829923
0.17756875231101243
-0.5843895608523215
-0.09829031782134331
-0.6692171203739173
0.13911458587154088
0.5272131999108358
-0.3485360679213994
0.5184158558372199
-0.010155038823762582
0.20856710056136785
-0.29617121127874324
-0.09374007857560487
0.013147168457370741
0.17033090414130458
-0.4354047403672214
-1.7563380804577953
-4.955334545252566
0.23302034510270384
0.17003180252144248
-0.6001585235731005
0.10158168969347826
0.0338382124259585
-0.12687117219625244
0.041695830871640006
0.14172064324729422
-0.16032617122072282
-0.3609562642784002
-0.11570066562091892
0.006981386828141279
0.2609618868488879
0.1030242565618978
0.2323831327944546
-0.7506983266592191
0.006397789154157168
0.10626067608182342
0.015031798209894266
-0.5454670478277994
0.334612674285002
1.3683863056584238
0.12955492103797292
-0.15154756711934386
-0.024683715691404835
-0.5493163785999496
-0.8102692055029375
1.4440703628814715
0.04168136777520303
-0.0061992978984452204
-0.07390480840504646
0.10958056868156188
0.07600755852709187
-0.0989966559883333
0.1596939955110887
-0.6056301549642851
-1.3236818921239664
0.24166763029323837
-0.021365863392291844
-0.1192204208625167
0.08407640280999752
0.23181838231092564
-1.5075997219429318
-0.04451887118446952
-0.07751662973961229
0.1469184109233988
0.09603959835846677
0.5084129600079152
-0.9071425602566162
0.28488556654055225
-0.28514923322958735
-0.1172858885556468
0.047076508778227624
-0.1948706525866446
0.11501219105937041
-0.33763478273798736
-0.026323776745966622
0.24058935750392227
1.4263459954751074
-0.09006468748018233
-0.7514644725319806
0.15199430520703866
0.1239888948090219
-0.4964654207381529
-1.2516784416076348
-4.022283876190209
0.4487694763057861
0.007714399901848392
-0.4748507250207566
0.5776633616699048
0.27454368346872365
-0.24783644458340262
-0.4560507232445892
0.033554388764536855
0.22896326716611104
-0.25747941250407363
-0.07526445165501573
0.011861573938438246
0.15867711410904783
0.006397789154157168
0.10626067608182342
0.015031798209894266
-0.16144364690777768
0.06110974542228724
0.07832129809817194
-0.5915822795866943
0.283049075937395
-3.7792711155919045
0.13327771254328005
-0.5696490533764235
-0.041808137813956155
0.06544404218673723
-0.5670495832372323
0.5464527077534396
-0.05915146171521883
0.09158969391603186
-0.02705285310547513
0.025020748496057447
0.10243660350561416
-0.13793455702668564
-0.11570066562091892
0.006981386828141279
0.2609618868488879
0.22642451912797365
0.06907795884943854
-0.09864927989337671
-0.23145034586356
0.25716875334757666
0.011975623645608575
0.10306921255627163
-0.8972429001526236
0.19408628723240573
-0.03147392621656854
0.029997646008439315
-0.014535344414789689
-0.04045148031885213
-0.19272158891629654
0.14060849361501823
0.10977753536264505
0.05438843967896471
-0.6597427435898773
-0.03183241983832142
-0.9575004526072733
0.131431775761971
0.13403911074845773
-0.7251089634109101
0.06992253338505704
-0.1877236517294735
-0.26689730562137015
0.2219979989044497
-0.32557880514883936
-0.39314555534733286
0.19697223010460663
-0.403424926623328
0.018038795359545057
0.1335265294331033
0.18485777269454562
-0.03441646598553419
-0.026156682583567042
-0.06637882639182233
0.533593650286929
-0.3337180833778249
-0.2398791528017516
0.6395301111366943
-0.31682203156412325
0.1407857666916147
-0.0756826877227561
-0.21391377359871377
-0.3643670637085135
0.23474449016084628
-0.17210422186498284
-0.7621912303775819
-0.09541834243257452
0.3801039268707227
-0.1024132556508725
-0.18939694848458333
0.10449986316150563
0.17003180252144248
-0.6001585235731005
0.10158168969347826
0.010274981090806667
-0.011548173143898879
0.005409233022476101
0.37190527650681304
-1.76294527905277
-1.091742976067251
-0.05780757046275613
0.17639144969567278
-0.2085361573728491
-0.18129890361015374
0.16837363479436382
-0.02131693972361841
0.1675427649476163
-1.1247515991322954
-0.049677494606999925
-0.4975320084612047
0.10910001161538528
0.2151159338887204
0.27844993428847564
-0.25955841997419116
-0.5232405217225238
-0.898419855602285
0.39456419954772565
-0.9166162438126232
0.17756875231101243
-0.5843895608523215
-0.09829031782134331
0.1552087924570362
-0.2274951126963259
-0.21685877822979358
-0.16019185304054925
-0.18723758693673104
0.10486044224886704
0.28144827664642386
-0.23617514519180732
0.123790726687532
0.026758939670693063
-0.10391194738745937
0.07983766504150984
0.11312142008063043
-0.1498484557869411
-0.10883175534818952
-0.387356362974448
-0.5534092727180007
1.3591249315527583
-0.041996979631619136
-0.13762964680018558
0.20091325855116468
-0.5011231873229521
0.6085114056803582
0.13475926144448755
0.026758939670693063
-0.10391194738745937
0.07983766504150984
0.2881288387792376
-0.07041019957609171
-0.13197413966409155
0.11312142008063043
-0.1498484557869411
-0.10883175534818952
-0.07497258508382393
0.23109790027463514
-0.007673236018221944
-0.012475390338876216
0.07315122682749971
-0.10842203707171931
0.010274981090806667
-0.011548173143898879
0.005409233022476101
-0.2527816683909716
0.19465467514799897
0.056699289863895184
-0.3801045678344454
-0.1734113322696542
0.15257106802118975
0.0338382124259585
-0.12687117219625244
0.041695830871640006
0.34964974529403425
-0.38407597178539593
-0.16764152870072163
0.4057065450834096
-0.31280701930726557
-0.09162304059865999
-1.340056803354848
0.14504119171521226
0.6866513756389389
-0.1814272406117293
0.16910614304124363
-0.05439451465874784
0.12631527443009735
-0.1335477654343204
0.0037139402588787823
0.31668413559793585
-1.8823658486715376
-0.5611343160053693
0.21034742165774414
-0.224591230106347
-0.392168849336228
-0.23474578183820932
0.5064363067804846
-0.9398110278690966
-0.03153580000331125
-0.45883169256352824
0.12971407982174668
0.16601868994561889
0.25740811406119407
-0.6164239638734618
-0.03901236903751647
0.34298628031319167
-0.45396545437198815
0.05474224015619995
-0.22538895486681482
0.07394074955675463
-0.2527816683909716
0.19465467514799897
0.056699289863895184
0.006397789154157168
0.10626067608182342
0.015031798209894266
0.03324559530114112
0.03572251197058924
-0.07095305036113386
-0.3801045678344454
-0.1734113322696542
0.15257106802118975
-0.04812861129254065
-0.22184450571045602
0.11863988577443921
-0.46943672874074727
0.09142461430216774
0.05958160228541477
-0.3062287764376155
0.11758609156169925
0.011956297952140128
0.2995162778569764
-1.1025130618247085
0.1144798366845644
0.17504559604841496
-0.15829776607877288
-0.20331721033564676
0.15199430520703866
0.1239888948090219
-0.4964654207381529
-0.32557880514883936
-0.39314555534733286
0.19697223010460663
-0.06102203522408446
-0.049163142943798685
0.30529434577297004
-0.30085823783265236
0.27088810145331715
-0.14806701103822587
-0.05915146171521883
0.09158969391603186
-0.02705285310547513
0.025318606715783884
0.025898270809852093
-0.04726763063422741
0.2815474878292504
-0.7173488711122641
0.009897419019870653
0.00592970668347748
-0.4537591700695809
0.11479807913249673
0.0941702736058412
-0.3482296301406033
0.19704573782861157
-0.22346820794380676
0.08211137459936893
-0.022654279624355768
-0.20483598252605165
0.1048846181367372
0.06564080702965264
0.07605173243205517
0.062988719269303
-0.4789725631759911
-0.16127835639039814
0.4270500693576242
-0.046634741995972784
0.19653810804156494
-0.11398396679399293
0.07162224729456447
-0.03410633967536902
-0.07747804061001394
0.06760658110149664
-1.0939515037120746
-0.13631013967770833
0.19736854382914823
0.11094361200902848
0.10727656888465308
-0.539312116245235
0.009596377801143896
-0.19551048263609835
0.06452191005713803
-0.3365222227390344
0.7371435419821611
-0.8529760559958762
-0.2832984349283806
-0.15175098638163395
0.11756827515973615
-0.008235923410379735
-0.68375880423493
0.16044057566787615
0.03907774287984136
0.21498113521648973
-0.2117535719341747
0.15042505946220783
-0.2981225173080748
-0.024518364703585958
0.2995162778569764
-1.1025130618247085
0.1144798366845644
0.0941702736058412
-0.3482296301406033
0.19704573782861157
-0.16019185304054925
-0.18723758693673104
0.10486044224886704
0.07640398448794235
-0.5253070339156243
0.24374663296988672
0.10306921255627163
-0.8972429001526236
0.19408628723240573
-0.34836101379090306
0.21552357806124084
0.5899458325756599
0.05622982750480928
0.010534019132718146
-0.11705296506464469
-0.3485360679213994
0.5184158558372199
-0.010155038823762582
-0.5594249101014301
-0.03982541373514101
0.39094469831104217
-0.2832984349283806
-0.15175098638163395
0.11756827515973615
-0.3081832159643466
-0.3335718157483404
0.19714859013493335
-0.12956292992178728
-0.13941286766355745
0.1501626651204656
-0.0615596117533972
0.10030303973411668
-0.005103528077348668
-0.055082378767213
0.17837353508135168
-0.39715120386847386
0.007714399901848392
-0.4748507250207566
0.5776633616699048
-0.05915146171521883
0.09158969391603186
-0.02705285310547513
-0.0762901202589418
0.33887986863988384
-0.14640643894840566
-0.5557837738934536
0.271184534414533
0.20487379515210422
0.07671322932740302
-0.15857218262220094
-0.006158067928958347
0.6905460802776825
0.21957949977839608
-0.38117783917769227
0.1384085133097265
-0.28294831415868577
-0.04687739698592312
0.16601868994561889
0.25740811406119407
-0.6164239638734618
0.17526988968804383
-0.35993714536548727
0.12399468342739324
0.027669194405330014
0.16046184822956383
-0.24577634403287693
-0.22559700127608381
0.614766850800899
-0.053303243592788846
-0.2406190601463276
-0.03257003406923988
0.1538258180101238
-0.38989153434347035
-0.698482491005234
0.6546862414503012
0.21919199344748536
-0.044348178444547214
-0.21204456603035718
-0.0379233205130214
0.21530466110166963
-0.24343259008702636
0.4853589927965996
-0.9634344766246477
-0.20378666658498465
0.145860940227806
-0.5319459745583789
-0.008034426944951475
-0.17631622533157731
0.4960280811450768
-0.12917371903692737
-0.6342027752175418
-0.10950545570988438
0.32658041941546245
-0.20483598252605165
0.1048846181367372
0.06564080702965264
-0.05915146171521883
0.09158969391603186
-0.02705285310547513
-0.032979083411591975
0.19167960295520134
-0.2948294260174299
0.047076508778227624
-0.1948706525866446
0.11501219105937041
-0.041996979631619136
-0.13762964680018558
0.20091325855116468
0.28488556654055225
-0.28514923322958735
-0.1172858885556468
-0.2076806007641326
-0.1321940654820525
0.24845700448420086
0.025020748496057447
0.10243660350561416
-0.13793455702668564
0.15833377482274655
0.4070517389523526
-0.05990178419729672
0.2672880144081329
-0.031077866096978157
-0.275261429480159
-0.018190724146177777
-4.458951797944925E-4
0.031655620921863865
0.05622982750480928
0.010534019132718146
-0.11705296506464469
-0.5010962470448425
0.21241404452009402
-0.0990943405566186
-0.6962878857150882
0.325812048627886
1.0772923646840649
0.24702374459596543
0.3572555762106936
-0.7316768197432365
0.16759127740891488
0.22350118857261353
-0.2907425754513067
-0.02655716876673034
0.1762099031642921
-0.27758194123329166
0.1171411946659093
0.04839287928900491
-0.1968857926580054
0.07365268577364066
-0.15169209315137752
0.0013385678035941844
0.03720881504674632
0.03640403718667758
-0.15207433688994296
0.010274981090806667
-0.011548173143898879
0.005409233022476101
0.0034946876563780147
-0.05112184746712354
0.03733076948812267
-0.409734320448474
0.053550835336135444
0.2296233267343171
-0.04045148031885213
-0.19272158891629654
0.14060849361501823
0.20046344668335023
-0.895751015606236
0.1998629429443223
0.19060312904955293
0.15032011671598278
-0.7588091934617855
-0.2832984349283806
-0.15175098638163395
0.11756827515973615
-0.387356362974448
-0.5534092727180007
1.3591249315527583
-0.17782322105961687
0.0047355333752281065
0.07453190419486802
0.22642451912797365
0.06907795884943854
-0.09864927989337671
0.09372772274751623
-0.043332452950125104
-1.2244678740984734
0.20770436378347834
-0.014743320220933097
-0.24046866481970272
-0.036101619172759385
-0.4132000013058308
0.1281774608806314
0.08677232730307301
-0.18074212037958204
0.07268646389745913
0.2210545749486258
-0.04926021876333297
-0.10477674696388638
-0.005918327829451782
-0.33974283261320964
0.221460366309778
-0.0615596117533972
0.10030303973411668
-0.005103528077348668
0.13403911074845773
-0.7251089634109101
0.06992253338505704
0.06311952387550261
-0.1143756238984572
-0.018362064783611336
-0.6022103435046663
0.31832835565380097
-0.417028719294327
0.34964974529403425
-0.38407597178539593
-0.16764152870072163
0.13847759708722365
-0.5313164141376087
-0.11322157995930417
0.03907774287984136
0.21498113521648973
-0.2117535719341747
-0.18973745336048545
0.04416368687426642
0.18708857364265244
-0.22284191131265343
0.14317392009493188
0.09645272529689568
0.15261119086947975
-0.15156969633414943
-0.27741986717313455
0.4553085465394913
-0.5438853807390508
-0.06501199951141619
-0.7457308312925497
-0.9947757606862839
0.640511907180241
-1.005599952191383
0.21717688896282583
-0.05122115861538529
-0.1539167989108295
0.15249678977085718
0.5159559160820204
0.10169667045661042
0.16421595859379348
-0.7715720621291368
0.21845725336233343
-1.1595706242971828
-0.1613529122573438
-0.1784596065228825
-0.8942281486666347
0.44398791101742346
0.060129138382260146
-0.009820521963130513
-0.044941822544747656
0.05808299065905801
-0.5494665090971861
0.2134424257736909
-0.3302391141957376
0.04658741213889948
0.1398641312004814
0.10125894424389835
-0.2836975398304173
0.11616113144118406
-0.1814272406117293
0.16910614304124363
-0.05439451465874784
-0.03924173077190658
-0.11656155692549537
0.15522427162701072
-0.05503208278911051
-0.1733583272524822
0.32089895484196695
0.21034742165774414
-0.224591230106347
-0.392168849336228
0.21290604432192622
-0.7436806581649669
-0.20859419648205935
-0.3544342019301318
0.6132688349237626
-0.020156528987061963
0.08677232730307301
-0.18074212037958204
0.07268646389745913
0.19282485030898835
0.389163199432095
-0.9291866599013078
0.2210545749486258
-0.04926021876333297
-0.10477674696388638
0.18961413773474306
-0.6617411250293204
-0.03709708187306632
0.03789368929901285
0.06781193411634237
-0.21930081265570286
-0.25948817886034986
0.21961699227916645
-0.2868370222483844
0.16041563403625958
-0.21980963150530333
-0.034165176365067405
-0.28556479163991416
-0.1012194544796639
0.13280928609512416
0.11162897542194997
-0.4372393013009063
0.13794921570870947
0.10169667045661042
0.16421595859379348
-0.7715720621291368
0.35589804927161994
-3.4135568609328706
-1.785720109351485
0.30456277547453653
-0.8250725510068483
0.18072098913330664
-0.04823458697377116
-0.4132192564495393
0.16500619002856842
0.06831144016833621
-0.07333658191394637
-0.07132405518465396
0.21919199344748536
-0.044348178444547214
-0.21204456603035718
0.05209650768711586
-0.2576422858336906
0.09625299598979248
0.06481987512596278
-0.052711208777954675
-0.09274112106022825
0.0027063322477864455
-0.2269784744776085
0.13412811163170965
-0.17423033716769099
0.0533242245534377
0.07490382217221529
-0.016335586671430057
-0.011387098443503383
0.07426643241362713
-0.2788284048845396
-0.20059291877555405
0.9447824481923246
0.025020748496057447
0.10243660350561416
-0.13793455702668564
0.027669194405330014
0.16046184822956383
-0.24577634403287693
0.21290604432192622
-0.7436806581649669
-0.20859419648205935
0.1663965207621919
0.24444956305844126
-0.6283370597652724
-0.14691085640659782
0.10416250649848441
-0.10742432195498908
0.21664683237455945
-1.0576150758978746
0.9906480835030824
-0.6912914185439603
-0.22066208316295655
0.5636581778004542
0.0027063322477864455
-0.2269784744776085
0.13412811163170965
-0.0762901202589418
0.33887986863988384
-0.14640643894840566
0.11312142008063043
-0.1498484557869411
-0.10883175534818952
0.15042505946220783
-0.2981225173080748
-0.024518364703585958
0.07640398448794235
-0.5253070339156243
0.24374663296988672
0.025318606715783884
0.025898270809852093
-0.04726763063422741
0.06481987512596278
-0.052711208777954675
-0.09274112106022825
-0.018671608183594438
-0.32749961675388045
0.18647044543154614
0.1552087924570362
-0.2274951126963259
-0.21685877822979358
0.027669194405330014
0.16046184822956383
-0.24577634403287693
0.009596377801143896
-0.19551048263609835
0.06452191005713803
-0.07361076547206545
0.014918862270208798
0.0548292249258536
-0.30042356503654594
0.0544089746333766
0.12169468389557805
-0.3062287764376155
0.11758609156169925
0.011956297952140128
0.03921208771582616
-0.5911454511904164
0.2677051619349811
-0.03410633967536902
-0.07747804061001394
0.06760658110149664
-0.15046332499139942
-0.060916753182215996
0.3277542861570179
-0.00222017535690571
-0.007660406718636286
0.0152401794897631
-0.3071820693149628
0.30366972936544884
-0.11303699300938315
-0.13185505599798478
0.02965353940445546
0.06836067575875787
-0.77437171295322
0.48666236981053584
-0.3745459842291043
-0.03568911824009511
0.4191118594389789
0.011447154150636837
-0.31270285199616044
0.11790151441050563
0.07654542405073166
-0.11551292463833962
-0.16394566140917893
0.18900791023100547
-1.3674497642194516
-0.2364830225100631
0.2587853979970561
0.1104903293043479
-0.1748478203192795
-0.04087930116878795
-0.26986358740094923
-0.21545029418820708
0.2723617708082242
0.004882601517165578
0.0014666406842816766
-0.0026710899994182237
0.07784540594836438
0.009313858165966532
-0.19073053916712507
0.21290604432192622
-0.7436806581649669
-0.20859419648205935
-0.9099746846876531
0.6650507508439674
-0.058010791676675506
-0.48146215923781077
-0.1453217633324644
0.16498748222791318
0.12678051847443897
-0.3845293227614378
-0.1296163534930003
-0.1814272406117293
0.16910614304124363
-0.05439451465874784
-0.03183241983832142
-0.9575004526072733
0.131431775761971
0.3586548332599759
-0.25116667722062735
-0.3962319840411373
-0.1197784752989093
-0.27062749963825306
0.10603760532055113
-0.011960721387808097
0.20787570001660793
-0.28250506326123714
0.21034742165774414
-0.224591230106347
-0.392168849336228
-0.24365799895759246
0.24085489371516797
-0.13886700499053342
0.1762949367027773
0.03049348409222881
-0.6093001860861931
-0.46943672874074727
0.09142461430216774
0.05958160228541477
-0.07361076547206545
0.014918862270208798
0.0548292249258536
-0.30042356503654594
0.0544089746333766
0.12169468389557805
0.03921208771582616
-0.5911454511904164
0.2677051619349811
0.42347989380897033
-0.18620564249337931
-0.2169367305307727
-0.17570744016642645
0.3401253050106335
0.5351289610448762
-0.11929706568562251
0.3986637324733074
-0.11122199708291378
-0.03408852875787405
0.051007593497883454
-0.06578369888805072
-0.007984060832200358
0.014338056341349941
0.002181115421857683
0.1552087924570362
-0.2274951126963259
-0.21685877822979358
0.3586548332599759
-0.25116667722062735
-0.3962319840411373
-0.46943672874074727
0.09142461430216774
0.05958160228541477
0.1762949367027773
0.03049348409222881
-0.6093001860861931
-0.17631622533157731
0.4960280811450768
-0.12917371903692737
0.04994741405601379
0.019323939432980088
-0.1347662437251611
-0.21078272290784683
-0.8508143022600685
0.4402954854262598
0.17441066802547053
-0.5661572713561951
-0.051120874905536816
-1.0096722486205638
-0.3435045309841163
0.3452939173463612
-0.01345829760036983
-0.35958794854832027
0.28620575685819427
0.11312142008063043
-0.1498484557869411
-0.10883175534818952
0.0941195375784778
-0.0906497757812124
-0.11507997059830348
0.16262725204679981
0.5344643870763802
-0.5102341592560572
-0.23145034586356
0.25716875334757666
0.011975623645608575
-0.06071008442552741
-0.08961821176269351
0.1269651595727149
0.11162897542194997
-0.4372393013009063
0.13794921570870947
-0.14519373886299244
0.22258368460354852
-0.22495779522869583
-0.18793133278003135
-0.6123547498863362
0.8488149063161909
-0.03183241983832142
-0.9575004526072733
0.131431775761971
-0.1539167989108295
0.15249678977085718
0.5159559160820204
-0.0469657600633401
-0.224346207804939
0.25599684799413813
-0.3643670637085135
0.23474449016084628
-0.17210422186498284
0.13403911074845773
-0.7251089634109101
0.06992253338505704
0.04165918202990475
-0.40508480680845843
0.35729012990898384
-1.0096722486205638
-0.3435045309841163
0.3452939173463612
-0.06808895426182843
0.17243596405445308
-0.4573961714255438
-0.03924173077190658
-0.11656155692549537
0.15522427162701072
-0.6430027606508033
0.19622879549645525
0.13705487207434316
-0.27138893771317973
0.15354123056922261
0.04542330288197683
0.1763654239009066
-0.4988438203221897
-0.12476034172477325
0.35422804691001525
-1.3727236105471126
0.12147205701486634
0.16279796116846376
-0.10653562473891874
0.077779278514189
-0.014325851007160918
0.15463707249348002
-0.7199998061155594
0.0037417363178708874
0.0015261367225860242
0.0038815556563130617
-0.2426967968936807
0.19600827346850527
0.05435948787883089
0.14384040054949407
-0.010070472804872641
-0.18195681571613073
0.0626138771053133
-0.054659517919230745
-0.02653775046912939
0.20342403689541882
-0.18763413187318326
-0.29219327260825684
0.07231075638301301
-0.1292366271614905
0.03415408886595498
0.1171411946659093
0.04839287928900491
-0.1968857926580054
-0.3801045678344454
-0.1734113322696542
0.15257106802118975
0.12893788408083506
-0.015936771025854307
-0.1790023289997726
-0.3908139266685914
0.1005307859073463
0.299843562616189
-0.025898993009157746
0.3021912032053832
-0.04059454396689483
-0.1837788033999044
0.20500390995160647
0.07255834965717782
0.2210545749486258
-0.04926021876333297
-0.10477674696388638
0.13847759708722365
-0.5313164141376087
-0.11322157995930417
0.06339237385669365
0.05308335910511676
-0.35884060482945074
-0.2222167399963293
0.12175505163716348
0.024974909503593448
-0.4643345010903678
0.2805040297869058
0.17573764488431384
0.2313276493004608
-0.2622624690037089
0.052725498808019196
0.15287723840500997
-0.8659526145549769
0.2115480913249757
0.06525546669687152
-0.054382587003192824
-0.0365529412639524
0.2881813144001678
-0.060024052981888926
-0.6604849732041891
-0.07497258508382393
0.23109790027463514
-0.007673236018221944
0.01851972441061228
0.2886652103688063
-0.7506424721809755
0.2881288387792376
-0.07041019957609171
-0.13197413966409155
0.011192537813261898
0.4532748241628929
-0.37959731657823054
-0.6328369978333734
0.32739016867669807
0.1281651823366924
-0.2527816683909716
0.19465467514799897
0.056699289863895184
-0.3801045678344454
-0.1734113322696542
0.15257106802118975
-0.6447454470536691
0.7307910904035941
0.37462805635145047
-0.0967689445048955
0.10387956464316635
-1.3276778152079778
-0.07201289476829507
0.678919375628092
0.0045554139798929996
0.14384040054949407
-0.010070472804872641
-0.18195681571613073
-0.3728056161307415
0.11525887241707128
0.3648167842355921
0.12631527443009735
-0.1335477654343204
0.0037139402588787823
0.07231075638301301
-0.1292366271614905
0.03415408886595498
-0.23474578183820932
0.5064363067804846
-0.9398110278690966
0.2301519335660577
-0.07979108266155663
-0.2672060466495844
-0.04493630998111302
0.008484361859957507
0.06965135850689796
-0.012475390338876216
0.07315122682749971
-0.10842203707171931
0.1384085133097265
-0.28294831415868577
-0.04687739698592312
-0.3862024515674109
0.027847749547584934
0.13128732217343284
-0.30042356503654594
0.0544089746333766
0.12169468389557805
-0.047894344635302386
0.004701199929778957
0.043676659493969094
0.12355185264106129
-1.9329272890005438
-0.27065317844880804
-0.1077170904596887
0.16962199024232946
-0.14116490621409683
0.4532217752323963
-1.6179238449619204
-2.0402899683848883
-0.1024132556508725
-0.18939694848458333
0.10449986316150563
0.06568173621402044
-0.8238759130233345
0.8615964435400559
-0.12956292992178728
-0.13941286766355745
0.1501626651204656
-0.06026644038979246
-0.8859755970587987
0.21201849297436706
-0.14519373886299244
0.22258368460354852
-0.22495779522869583
-0.6322625445680781
-0.3739763376723939
0.8431707130327415
-0.403424926623328
0.018038795359545057
0.1335265294331033
-0.1877236517294735
-0.26689730562137015
0.2219979989044497
-0.013529109482828396
-0.6114226884072744
0.13682788344072377
0.2727427420992036
-0.7080871565313147
-0.757759535650984
0.23884713257673354
-0.26654144859223394
-0.08994001543573464
0.054720142851976246
0.030909843837725333
-0.2030751983770582
0.03789368929901285
0.06781193411634237
-0.21930081265570286
0.12631527443009735
-0.1335477654343204
0.0037139402588787823
-0.23474578183820932
0.5064363067804846
-0.9398110278690966
0.17462427602358735
0.43900068033658174
-0.5523272014800765
0.1663965207621919
0.24444956305844126
-0.6283370597652724
0.054720142851976246
0.030909843837725333
-0.2030751983770582
0.46305968467435016
-0.42718012856542864
-0.19911008116820875
0.10819003720588886
-0.12312882587690124
-0.305115385878853
-0.0646947469748806
-0.1684760643990822
0.16662164121446826
-0.20111698036404035
-0.598846345238823
0.1956796154103919
0.5547590724927101
-0.20431885995748053
-0.04435070668892762
0.1639280217504887
-0.282120580752062
-0.250084940182102
0.4853589927965996
-0.9634344766246477
-0.20378666658498465
-0.012595049684814577
-0.13347597507258174
0.22392303895460416
-0.05503208278911051
-0.1733583272524822
0.32089895484196695
0.5838383436242063
-0.4407858734089018
-0.3854952307586301
-0.2832984349283806
-0.15175098638163395
0.11756827515973615
-0.15425008087136627
0.13890408003531968
-0.016706233617092663
0.2591446059164668
-0.2264031834406931
-0.4100672867659408
-0.03745077461288772
-0.004628452810285304
0.08136229318590502
-0.01430576820114429
0.318283813619085
-0.5181712781273686
0.42347989380897033
-0.18620564249337931
-0.2169367305307727
-0.22559700127608381
0.614766850800899
-0.053303243592788846
0.03720881504674632
0.03640403718667758
-0.15207433688994296
0.48994428014928004
-8.050907538313531E-4
-0.4172589088012446
-0.014325851007160918
0.15463707249348002
-0.7199998061155594
-0.08499026031010354
0.09976257413574928
-0.00807601164425405
-0.018671608183594438
-0.32749961675388045
0.18647044543154614
0.14864648287126186
-0.1806697870156169
-0.5596917419819725
0.0524845442675576
-0.15184683257110831
0.08285484519928468
0.054720142851976246
0.030909843837725333
-0.2030751983770582
0.12678051847443897
-0.3845293227614378
-0.1296163534930003
0.48994428014928004
-8.050907538313531E-4
-0.4172589088012446
0.16262725204679981
0.5344643870763802
-0.5102341592560572
-0.3071820693149628
0.30366972936544884
-0.11303699300938315
-0.27021287523421983
-0.2246880160285003
0.4217145388073028
-0.09465720386008049
-0.008741347164383606
0.11219475425519647
-0.5557837738934536
0.271184534414533
0.20487379515210422
0.0696578885428941
0.07153583261972976
-0.11220657875736748
-0.8641335301100339
-0.6994925657415094
0.26662822284672866
0.17504559604841496
-0.15829776607877288
-0.20331721033564676
-0.07834361719317386
-0.3638873717845884
0.21418398625550236
0.10209043139120277
-0.13331035805937275
-0.06647934498723151
-0.7991040127691427
0.3375855648441913
0.21967385437572695
0.18600324332209942
-0.3419605517725582
-0.07015068848838747
-0.18973745336048545
0.04416368687426642
0.18708857364265244
0.22642451912797365
0.06907795884943854
-0.09864927989337671
-0.6609970863021791
0.012252691434878003
0.38289112549860427
-0.25948817886034986
0.21961699227916645
-0.2868370222483844
0.5288972286549489
-0.13424773201277657
-0.09312501408482118
0.0034946876563780147
-0.05112184746712354
0.03733076948812267
-0.008235923410379735
-0.68375880423493
0.16044057566787615
0.06731080253550627
-0.4557938866165287
0.4141848213356118
-0.09362862394337543
0.5242946765367212
-0.49743249110631343
-0.1197784752989093
-0.27062749963825306
0.10603760532055113
-0.6713973365657099
0.1697843869816135
0.17198905023430971
-0.016770430295324025
0.30702697664155054
-0.438256157367473
-0.012475390338876216
0.07315122682749971
-0.10842203707171931
-0.01430576820114429
0.318283813619085
-0.5181712781273686
-0.5454670478277994
0.334612674285002
1.3683863056584238
-0.012475390338876216
0.07315122682749971
-0.10842203707171931
0.04168136777520303
-0.0061992978984452204
-0.07390480840504646
0.17441066802547053
-0.5661572713561951
-0.051120874905536816
-0.055082378767213
0.17837353508135168
-0.39715120386847386
-0.6022103435046663
0.31832835565380097
-0.417028719294327
0.2648054037561851
-0.2949470819995005
-0.3106912318938148
-0.6398540900365705
0.5552965698943424
-0.9105282755647932
-0.2222167399963293
0.12175505163716348
0.024974909503593448
-0.474378780918178
0.2558496682109954
0.5872483777134578
0.11800740204983833
-0.35226209170559625
0.09181081230820103
-0.11929706568562251
0.3986637324733074
-0.11122199708291378
-0.057098712303718706
-0.008573795245155065
0.09297564937970333
0.0338382124259585
-0.12687117219625244
0.041695830871640006
-0.012595049684814577
-0.13347597507258174
0.22392303895460416
-0.055082378767213
0.17837353508135168
-0.39715120386847386
-0.17570744016642645
0.3401253050106335
0.5351289610448762
-0.15590807297803222
-0.9477224112999092
0.2885623683789779
-0.05780757046275613
0.17639144969567278
-0.2085361573728491
0.2905634661084608
0.30295084522347643
-0.2664588664746164
-0.2303148851752129
-0.47233354474327954
0.45358213556182037
0.04168136777520303
-0.0061992978984452204
-0.07390480840504646
0.07605173243205517
0.062988719269303
-0.4789725631759911
8.432954065549716E-4
-0.19086823722721188
0.0972505148323175
0.14259645273094082
0.2006909563723003
-0.6304640984266603
-0.010959591627705616
0.15346000673884502
-0.12759860294325315
0.3293835532461719
-0.21869756345982905
-0.036957854260812356
0.13192249691151156
-0.1790160533017656
-0.571020534449454
